{
  "layers": [
    {
      "0": {},
      "1": {},
      "2": {},
      "3": {},
      "4": {},
      "5": {},
      "6": {},
      "7": {},
      "8": {},
      "9": {},
      "10": {},
      "11": {},
      "12": {},
      "13": {},
      "14": {},
      "15": {},
      "16": {},
      "17": {},
      "18": {},
      "19": {},
      "20": {},
      "21": {},
      "22": {},
      "23": {},
      "24": {},
      "25": {},
      "26": {},
      "27": {},
      "28": {},
      "29": {},
      "30": {},
      "31": {},
      "32": {},
      "33": {},
      "34": {},
      "35": {},
      "36": {},
      "37": {},
      "38": {},
      "39": {},
      "40": {},
      "41": {},
      "42": {},
      "43": {},
      "44": {},
      "45": {},
      "46": {},
      "47": {},
      "48": {},
      "49": {},
      "50": {},
      "51": {},
      "52": {},
      "53": {},
      "54": {},
      "55": {},
      "56": {},
      "57": {},
      "58": {},
      "59": {},
      "60": {},
      "61": {},
      "62": {},
      "63": {}
    },
    {
      "0": {
        "bias": 0.39359335204237067,
        "weights": {
          "0": 0.3842383833004512,
          "1": -0.40737943900002127,
          "2": -0.1841755903067001,
          "3": -0.2758075799000881,
          "4": 0.01865750476050148,
          "5": -0.288982652874548,
          "6": -0.17532175946019174,
          "7": -0.06666792872977392,
          "8": -0.0487222279417469,
          "9": -0.3545678881537026,
          "10": -0.1591562655211143,
          "11": -0.33425419386033406,
          "12": -0.19765017153254236,
          "13": -0.2578741389687423,
          "14": -0.3673906652607148,
          "15": -0.16394784795899564,
          "16": -0.13726152850711465,
          "17": -0.065409505938774,
          "18": -0.23240696257342075,
          "19": -0.08388297194914049,
          "20": -0.0025334765334016876,
          "21": -0.2585770791569571,
          "22": 0.07648351313523485,
          "23": 0.00834818283561318,
          "24": 0.08364536357272591,
          "25": -0.06533088576348234,
          "26": -0.05699785032399158,
          "27": -0.18223239546020908,
          "28": -0.0886401550289235,
          "29": -0.27971747578721384,
          "30": -0.15317177147125055,
          "31": -0.17963857458984955,
          "32": 0.1329198966198426,
          "33": -0.18597254405096092,
          "34": 0.11271748924459626,
          "35": 0.025836802406284377,
          "36": 0.293348738761617,
          "37": -0.17211970101570367,
          "38": -0.17935366541380438,
          "39": 0.060845911259595264,
          "40": 0.018148284866823107,
          "41": 0.0638633301556112,
          "42": -0.046415077644186745,
          "43": -0.09542774638645758,
          "44": -0.02092426777466359,
          "45": -0.13806382005137202,
          "46": 0.14687499135614704,
          "47": -0.07890191580850728,
          "48": 0.0672975539295183,
          "49": 0.001267907352485616,
          "50": 0.09446320881739158,
          "51": -0.12580737260131505,
          "52": 0.24768278001189112,
          "53": -0.08615840577287498,
          "54": 0.26736434354998784,
          "55": -0.18401247860864892,
          "56": 0.04608821374583378,
          "57": -0.10379786565054583,
          "58": -0.05580065781681391,
          "59": -0.07064177334175327,
          "60": 0.021976229761090798,
          "61": -0.1682391911258071,
          "62": -0.09017988462894487,
          "63": -0.19951903838481777
        }
      },
      "1": {
        "bias": -0.41774365568529215,
        "weights": {
          "0": -0.2097511810208685,
          "1": 0.13392454937956155,
          "2": 0.12053167718148347,
          "3": 0.17726392024041365,
          "4": 0.12920026788568786,
          "5": 0.004805257499560908,
          "6": -0.01973588812124179,
          "7": 0.2718661335351274,
          "8": 0.12350508175403277,
          "9": 0.1573940543359862,
          "10": 0.027895776783725724,
          "11": 0.3911311132411386,
          "12": 0.19332673331611522,
          "13": 0.050920385518500186,
          "14": 0.2777572764112446,
          "15": 0.025636221613412,
          "16": -0.07711737150807682,
          "17": 0.22468785712720338,
          "18": 0.18237773156843592,
          "19": 0.1504516548763583,
          "20": -0.22779098301787018,
          "21": 0.0811092884218273,
          "22": 0.06198675489114354,
          "23": -0.0679565219008353,
          "24": 0.14782584667498566,
          "25": 0.03697218653218918,
          "26": 0.2552326805287663,
          "27": 0.06804686895030773,
          "28": 0.10808084919235737,
          "29": 0.13973062870080571,
          "30": -0.012853870759555564,
          "31": -0.008352582517561949,
          "32": 0.09862395084620319,
          "33": 0.022223352300929988,
          "34": 0.1365998578051556,
          "35": -0.021178177819692116,
          "36": -0.08426426930158995,
          "37": 0.17798485595109587,
          "38": 0.028978305094480652,
          "39": -0.020372514669121603,
          "40": 0.05864563236156363,
          "41": 0.03760689999985018,
          "42": 0.0026378278692980157,
          "43": -0.07514089607957776,
          "44": -0.1088177706280648,
          "45": 0.21744042389364368,
          "46": -0.07450050365052072,
          "47": 0.12131966106403166,
          "48": 0.08973133621648972,
          "49": 0.23638658703792584,
          "50": 0.1326821903860501,
          "51": 0.23761054565661405,
          "52": -0.07563805521444159,
          "53": 0.06465650966664326,
          "54": 0.08676719846458562,
          "55": 0.1518500520729252,
          "56": -0.08389164573790513,
          "57": 0.07919678884862943,
          "58": 0.010006252073571434,
          "59": 0.05985114811757085,
          "60": -0.12378384813929072,
          "61": 0.27660196029821854,
          "62": 0.004823294024250195,
          "63": 0.026003208484421673
        }
      },
      "2": {
        "bias": 0.1910269946976061,
        "weights": {
          "0": 0.2533057028304266,
          "1": -0.3019456206545269,
          "2": -0.12653126316450852,
          "3": -0.04633475767706437,
          "4": 0.030809973674225433,
          "5": 0.0005392403993388379,
          "6": -0.16426869418941714,
          "7": -0.09584930976838783,
          "8": -0.060320088284933855,
          "9": -0.34976691431578927,
          "10": -0.04712599360410145,
          "11": -0.26912861578734093,
          "12": 0.05848522340582854,
          "13": -0.2338356612860646,
          "14": -0.018895197457317724,
          "15": -0.1384127216444134,
          "16": -0.01197196598550555,
          "17": -0.006917471946368316,
          "18": -0.2774685098475043,
          "19": -0.238451067265934,
          "20": 0.10890913152474178,
          "21": -0.1083039227085661,
          "22": 0.0059377941691805625,
          "23": 0.03882109331899651,
          "24": -0.20558572991853602,
          "25": -0.07344305151186725,
          "26": 0.04123104341168082,
          "27": -0.22554970918456702,
          "28": -0.23499550335387703,
          "29": -0.005882208015975781,
          "30": -0.08319980527421453,
          "31": -0.18013385023807937,
          "32": 0.037693560901826545,
          "33": -0.28233001290305404,
          "34": 0.04349948274421683,
          "35": 0.04036642617812884,
          "36": 0.18852153824211842,
          "37": 0.09314577043012005,
          "38": -0.16064592552096033,
          "39": -0.17701588031988463,
          "40": 0.03662004683880639,
          "41": -0.15344280570270066,
          "42": 0.08545040700304649,
          "43": 0.024369636404811563,
          "44": 0.14909462815050742,
          "45": -0.15935286569714222,
          "46": -0.1326798314809012,
          "47": 0.044947019357953706,
          "48": 0.08779848485118688,
          "49": -0.16153106336967257,
          "50": -0.07213672298472355,
          "51": -0.19461183521536027,
          "52": 0.22570763706623173,
          "53": -0.0716563769082955,
          "54": -0.056664069834228135,
          "55": 0.022387857595678202,
          "56": 0.06475098232769488,
          "57": -0.044410993094239626,
          "58": -0.08432431266886158,
          "59": -0.24458929084416028,
          "60": -0.04055296349298385,
          "61": -0.24922372709077945,
          "62": 0.03167667223122313,
          "63": -0.10053726860945798
        }
      },
      "3": {
        "bias": -0.3770752833731956,
        "weights": {
          "0": -0.1883804885579553,
          "1": 0.19989557129054789,
          "2": 0.3126818671727293,
          "3": 0.27050852784896395,
          "4": -0.08050777582820459,
          "5": 0.1282521667346927,
          "6": 0.21351687987159224,
          "7": 0.2840029902908256,
          "8": 0.16262989543153447,
          "9": 0.014923929153421648,
          "10": 0.021941584648346918,
          "11": 0.29713298086953666,
          "12": 0.06407352634634714,
          "13": 0.11667109310675791,
          "14": -0.032188173574857405,
          "15": 0.22668464563551344,
          "16": -0.19136855565008415,
          "17": 0.2078495935970129,
          "18": 0.0729260466728647,
          "19": 0.08437648026318974,
          "20": 0.11771923181350685,
          "21": 0.21509664018330274,
          "22": -0.080257601200487,
          "23": 0.015692194772224024,
          "24": 0.0016429512690603033,
          "25": 0.17259160703506898,
          "26": 0.04704397422212059,
          "27": 0.10146972479830223,
          "28": 0.17785458253907813,
          "29": -0.052679173857466934,
          "30": 0.1148470154824146,
          "31": 0.09151700911754394,
          "32": 0.12654836538339134,
          "33": 0.23888454879056392,
          "34": 0.006970820006072699,
          "35": 0.26645266990361444,
          "36": -0.14498009340906123,
          "37": 0.021422981290586292,
          "38": -0.1056567272303765,
          "39": 0.12210820589391475,
          "40": -0.03983642392272706,
          "41": 0.13257659658957496,
          "42": -0.03303759972160715,
          "43": -0.14030925563224378,
          "44": 0.041169277073394024,
          "45": 0.16889553035995863,
          "46": 0.01633873556831232,
          "47": 0.05907258879820858,
          "48": -0.20434758554453072,
          "49": 0.13167445649426426,
          "50": -0.07463242984737672,
          "51": 0.03171755721594977,
          "52": -0.0988777656071932,
          "53": 0.21668697080892474,
          "54": 0.11119122295238051,
          "55": 0.22494510473034313,
          "56": 0.1433239614726552,
          "57": 0.1911720197481313,
          "58": -0.1434728755116503,
          "59": 0.10562610206411648,
          "60": 0.10356917396767726,
          "61": 0.0054738823414272435,
          "62": -0.1103071887944742,
          "63": 0.08515464301388694
        }
      },
      "4": {
        "bias": 0.31296873318443824,
        "weights": {
          "0": 0.2706610854091006,
          "1": -0.04218805086653699,
          "2": -0.3649529636821993,
          "3": -0.22651364130908785,
          "4": 0.1307155678064911,
          "5": -0.316473019366346,
          "6": -0.057480717932714254,
          "7": -0.08551795249701687,
          "8": -0.1365989556923321,
          "9": -0.07232035510804462,
          "10": 0.012433787128869772,
          "11": -0.2054511194069799,
          "12": 0.12102998148311085,
          "13": -0.17322824177988325,
          "14": -0.21732885414088857,
          "15": -0.17432202974460423,
          "16": -0.1413558798351819,
          "17": -0.10303815742964202,
          "18": 0.04869715429939832,
          "19": 0.022856585222598844,
          "20": -0.08058440934324879,
          "21": -0.06341866335590862,
          "22": -0.057326486978370866,
          "23": -0.06225828446089889,
          "24": -0.23580519041789796,
          "25": -0.16228424538960987,
          "26": -0.26835105444030316,
          "27": -0.05088712152323015,
          "28": -0.09048263286811951,
          "29": 0.02909093946239672,
          "30": 0.07063376999491121,
          "31": -0.017300116038922904,
          "32": 0.18565895486806078,
          "33": -0.07826334620610433,
          "34": 0.11292330724254417,
          "35": -0.26507961056514895,
          "36": -0.11575789188492856,
          "37": -0.025008757755976822,
          "38": -0.10505338072570607,
          "39": -0.03788526789704159,
          "40": 0.07450455839669137,
          "41": -0.03942149172971787,
          "42": 0.0615664007753933,
          "43": -0.08372999528893536,
          "44": -0.2225952155058641,
          "45": 0.0022831331762327885,
          "46": -0.1268444225375611,
          "47": -0.2581321894915127,
          "48": 0.07186635962779298,
          "49": -0.1973995341521739,
          "50": -0.11377349585776457,
          "51": -0.029635982754980597,
          "52": -0.02393065336782083,
          "53": -0.19942941681223295,
          "54": 0.021731292080802964,
          "55": -0.11878019269958857,
          "56": 0.14720720437214038,
          "57": 0.027176990552850912,
          "58": -0.10122452441817835,
          "59": -0.22357572915619175,
          "60": 0.03262034783218394,
          "61": -0.21192260166799023,
          "62": 0.056621398594891716,
          "63": -0.006202382860087573
        }
      },
      "5": {
        "bias": 0.12176902558942679,
        "weights": {
          "0": -0.028494200865668434,
          "1": 0.19966713529449606,
          "2": 0.10038121877900961,
          "3": -0.06809675441512322,
          "4": 0.22220060012732087,
          "5": -0.06533357141205877,
          "6": -0.14276591001216107,
          "7": -0.08763114519826977,
          "8": -0.1327436984853459,
          "9": 0.21167709661505246,
          "10": 0.10771443679279284,
          "11": 0.04147645695897868,
          "12": -0.10845756077278884,
          "13": 0.1839384877623678,
          "14": -0.06813076371168794,
          "15": 0.020953899136559987,
          "16": 0.16859634055840345,
          "17": 0.049230324873943396,
          "18": -0.12574952005949563,
          "19": 0.15945653931520562,
          "20": -0.1301042563674961,
          "21": 0.16805984618788164,
          "22": -0.09549492521005627,
          "23": 0.029165856569254696,
          "24": 0.1767494678212259,
          "25": -0.038976177593438834,
          "26": -0.13852233846028114,
          "27": 0.22541633107660522,
          "28": -0.0904813891825157,
          "29": 0.08117783259129392,
          "30": 0.08822369292081815,
          "31": -0.14644749362492546,
          "32": -0.14545693995873443,
          "33": 0.20064388817795276,
          "34": 0.22824625051989575,
          "35": 0.08142777113813467,
          "36": 0.03749318401221526,
          "37": 0.2024836465248635,
          "38": -0.15197093378568846,
          "39": 0.1302850700982985,
          "40": 0.1433583197024116,
          "41": -0.013156289843329422,
          "42": 0.04930432733258728,
          "43": 0.13306148950131072,
          "44": 0.19858916823928288,
          "45": 0.12061208654550121,
          "46": 0.11824021795247834,
          "47": -0.05266118208706961,
          "48": 0.06084071858094717,
          "49": -0.10568762106248919,
          "50": -0.13002659095704705,
          "51": -0.09484274043938179,
          "52": 0.10560822179837355,
          "53": 0.02518453936929523,
          "54": -0.17170619175405913,
          "55": 0.19911347280907843,
          "56": -0.0742676281494245,
          "57": 0.13526154588660974,
          "58": 0.11715469617085099,
          "59": -0.07174098995042823,
          "60": 0.03324484440057303,
          "61": -0.10064561002929323,
          "62": 0.10905158146027352,
          "63": -0.1596888082536619
        }
      },
      "6": {
        "bias": 0.45532021245050724,
        "weights": {
          "0": 0.4419948613398071,
          "1": -0.40797116244702086,
          "2": -0.43317269957150345,
          "3": -0.16110190018461248,
          "4": -0.2158743673975381,
          "5": -0.3086198200816157,
          "6": -0.02293829618101312,
          "7": -0.1200917703035137,
          "8": -0.20296036906643516,
          "9": -0.09927590881168194,
          "10": 0.01834743566416068,
          "11": -0.3438589995217078,
          "12": -0.01824505693338068,
          "13": -0.36545909973297946,
          "14": -0.3806167986095067,
          "15": -0.2629161534610311,
          "16": -0.055307551863113605,
          "17": -0.032479805733549326,
          "18": -0.19427249899872243,
          "19": -0.18638299843017656,
          "20": -0.00516466544904339,
          "21": -0.10594446276953955,
          "22": -0.08386270639953196,
          "23": 0.0078200677943891,
          "24": -0.06672216459583304,
          "25": -0.2357479472313028,
          "26": -0.1810518099378216,
          "27": -0.016793190001494197,
          "28": 0.0292092740931515,
          "29": -0.21381019163475695,
          "30": -0.05209440240368162,
          "31": -0.2306066097962989,
          "32": 0.1578231692481722,
          "33": -0.03203735194626404,
          "34": -0.200174538626162,
          "35": 0.004398760839640443,
          "36": -0.011431392926008836,
          "37": 0.02386577421477141,
          "38": -0.16546738945685693,
          "39": 0.07525183104507098,
          "40": -0.045987346075108876,
          "41": 0.056400561521314375,
          "42": -0.027477572309003617,
          "43": 0.03954801770730698,
          "44": -0.07310755548286565,
          "45": 0.02903878747959814,
          "46": -0.05909732555507163,
          "47": -0.13660601423812407,
          "48": 0.07219700765492679,
          "49": -0.004386102528624893,
          "50": 0.26369730488081533,
          "51": -0.2787746802761392,
          "52": 0.18330149016440808,
          "53": 0.006813302946497412,
          "54": 0.18318744128757442,
          "55": -0.25082091859266453,
          "56": -0.11946404844273704,
          "57": 0.1563409401646827,
          "58": 0.15815483695444307,
          "59": -0.18177723241155994,
          "60": 0.07439492013169913,
          "61": -0.09261778117775954,
          "62": -0.16044630937313953,
          "63": -0.12692282737786828
        }
      },
      "7": {
        "bias": -0.009771550637168348,
        "weights": {
          "0": -0.06775508645178177,
          "1": -0.13755641908640276,
          "2": -0.13258110377728702,
          "3": 0.16733253457224473,
          "4": -0.018241502082269354,
          "5": 0.11550175921091947,
          "6": 0.0797934576809258,
          "7": -0.009411914963802632,
          "8": -0.015184683996064551,
          "9": 0.1523479495467367,
          "10": -0.1278502049383738,
          "11": 0.05142727764361971,
          "12": 0.01203393789358166,
          "13": 0.17081980307718722,
          "14": -0.14041947329864884,
          "15": -0.034712332392211574,
          "16": -0.08242671089096981,
          "17": -0.11486643017049805,
          "18": 0.02929942979009081,
          "19": 0.04524520659549773,
          "20": 0.11490953108755986,
          "21": -0.18997959619423335,
          "22": -0.18091290884421954,
          "23": 0.16985916563014433,
          "24": -0.19815500161508232,
          "25": -0.11162634501273293,
          "26": 0.19328176133363387,
          "27": -0.12030961759543728,
          "28": 0.05962492485567098,
          "29": 0.053611122925103054,
          "30": 0.06493142136013248,
          "31": -0.07774588129474148,
          "32": 0.03078027103695403,
          "33": 0.12583265373992975,
          "34": 0.008014130035776583,
          "35": -0.06096098762426169,
          "36": -0.01362911989786765,
          "37": -0.14941715882468024,
          "38": 0.06289489353316663,
          "39": -0.10487188234931218,
          "40": 0.013272289778790436,
          "41": -0.18826247501058846,
          "42": -0.1496086690628752,
          "43": 0.0888509992801821,
          "44": 0.11712593722280121,
          "45": -0.1771210842498249,
          "46": -0.1319526670528198,
          "47": 0.1487375967015786,
          "48": -0.026114458806209603,
          "49": 0.14022913337584425,
          "50": -0.02067263745341128,
          "51": 0.09803055678377556,
          "52": 0.11001640767568648,
          "53": -0.07699327731774436,
          "54": 0.0656029212835379,
          "55": 0.036753105824090554,
          "56": 0.17072981197039178,
          "57": -0.02444760716629614,
          "58": -0.11483596480934118,
          "59": 0.14274804808237096,
          "60": 0.05629078198380301,
          "61": -0.17875790390142307,
          "62": -0.1086095080953766,
          "63": -0.16605211900282293
        }
      },
      "8": {
        "bias": 0.14449933511752366,
        "weights": {
          "0": 0.07426538418331814,
          "1": -0.37952672950953603,
          "2": -0.24401899397841773,
          "3": -0.09095497121468213,
          "4": -0.16698014268255182,
          "5": -0.0071315593350300835,
          "6": -0.016394205185423644,
          "7": -0.29134128593563524,
          "8": -0.012695247340695513,
          "9": -0.32076428744755436,
          "10": -0.1820828927488035,
          "11": -0.42020933113309333,
          "12": 0.09707267141255846,
          "13": -0.18586884536865697,
          "14": -0.2611177541034106,
          "15": -0.3702269113630507,
          "16": 0.16728438917740815,
          "17": -0.24472784554577706,
          "18": -0.23938053766655,
          "19": 0.03506210930349673,
          "20": 0.07080674833499923,
          "21": -0.08010392412195319,
          "22": 0.17287597776079114,
          "23": 0.07606441615010859,
          "24": 0.11063175675244319,
          "25": 0.011889360488242857,
          "26": 0.04700963182044508,
          "27": -0.23320572021273572,
          "28": -0.03838006752497336,
          "29": -0.24027377239494546,
          "30": 0.08632926083655088,
          "31": -0.15518656352077223,
          "32": -0.11499268181223522,
          "33": -0.04228428620700306,
          "34": 0.005548601612502984,
          "35": -0.02724459624731544,
          "36": 0.14854936920047457,
          "37": -0.15496283305015418,
          "38": 0.08213012367441343,
          "39": 0.13300513133432268,
          "40": -0.07368225643759359,
          "41": -0.056899928811708314,
          "42": 0.012539920679276914,
          "43": -0.23659964503048025,
          "44": -0.03165336054520837,
          "45": 0.023960132845601383,
          "46": 0.14572780454414178,
          "47": -0.12032362713620254,
          "48": -0.02684633350039362,
          "49": 0.05467332587475703,
          "50": 0.015914190574663124,
          "51": -0.2594286255015216,
          "52": 0.23410556567227223,
          "53": -0.07942787263256468,
          "54": 0.04227576483309649,
          "55": -0.16512437344014863,
          "56": 0.061017206911229825,
          "57": -0.060642692358435155,
          "58": -0.05775004328141249,
          "59": -0.2111128286308363,
          "60": 0.1326806313365045,
          "61": -0.28984956691982683,
          "62": -0.02685122214082558,
          "63": 0.09083448635100937
        }
      },
      "9": {
        "bias": -0.07740780932899904,
        "weights": {
          "0": -0.0712473753446996,
          "1": 0.2409548021214818,
          "2": 0.1170836499031346,
          "3": 0.09672683646159133,
          "4": 0.22247980887873317,
          "5": -0.057552389923791185,
          "6": 0.22875141011968445,
          "7": 0.23263514175218736,
          "8": 0.22409772273143894,
          "9": 0.053291655610495245,
          "10": 0.09932072503662659,
          "11": 0.027477729214454634,
          "12": -0.12647509618248626,
          "13": 0.0288083094845032,
          "14": 0.13623796855117049,
          "15": 0.06783455465540582,
          "16": 0.05998678334939651,
          "17": 0.05666548885737701,
          "18": 0.19773476567416806,
          "19": 0.1764220585756418,
          "20": -0.025521058521552467,
          "21": 0.12478678878130443,
          "22": 0.04942613755919177,
          "23": -0.024990995205106555,
          "24": 0.19932510207386503,
          "25": -0.07088625585271159,
          "26": 0.22893024064126954,
          "27": -0.08381801949480493,
          "28": 0.14057415894198608,
          "29": 0.044965023691161815,
          "30": 0.1311606409912103,
          "31": 0.011259952947223364,
          "32": 0.17306224756702154,
          "33": 0.17726293709475263,
          "34": -0.02985263857306039,
          "35": -0.018066556057083648,
          "36": -0.004241173741027162,
          "37": 0.002737327835898974,
          "38": -0.16118788473893603,
          "39": 0.027202041068862273,
          "40": -0.0806926806400453,
          "41": -0.028394431070249738,
          "42": -0.10158313092365734,
          "43": 0.16995445563680273,
          "44": -0.02617561629567481,
          "45": 0.14677506581594657,
          "46": -0.13446345797285347,
          "47": -0.005228320698055268,
          "48": 0.1343003573955574,
          "49": 0.024422836073943504,
          "50": -0.0639450354264125,
          "51": 0.22283800764655462,
          "52": -0.044396267619014856,
          "53": 0.19749999074224134,
          "54": -0.02397654912974328,
          "55": 0.148779536053288,
          "56": -0.06825785658420934,
          "57": 0.12054783485707934,
          "58": 0.2120731052519233,
          "59": 0.019583017393363687,
          "60": 0.17496351819200534,
          "61": 0.0679959524281385,
          "62": -0.06736722000574732,
          "63": -0.0849941108340134
        }
      },
      "10": {
        "bias": 0.06159199030233922,
        "weights": {
          "0": 0.027572511332185412,
          "1": 0.1396308377441121,
          "2": -0.04761884742797103,
          "3": -0.1351525127947479,
          "4": -0.12666893712520869,
          "5": 0.11036136617782955,
          "6": -0.014008256506033167,
          "7": -0.027774842932081375,
          "8": 0.07463475276584469,
          "9": 0.04164903318494868,
          "10": 0.06495050344651271,
          "11": -0.06056218597915735,
          "12": -0.017229010177822694,
          "13": -0.03096630424454489,
          "14": 0.07079957372711629,
          "15": 0.09262523689927182,
          "16": -0.012645029558812446,
          "17": 0.18438543455532724,
          "18": -0.029261872430903963,
          "19": 0.2319048020011503,
          "20": 0.1417155369856443,
          "21": -0.058854320057256125,
          "22": -0.15136590977927886,
          "23": 0.06694465387471346,
          "24": -0.10278371925764683,
          "25": -0.11006489297131297,
          "26": -0.12304062385833275,
          "27": 0.0372687778559638,
          "28": -0.16271714467107734,
          "29": -0.15558348213230652,
          "30": 0.04745341065221674,
          "31": -0.15317290491476243,
          "32": 0.1334834583012128,
          "33": 0.13614270967613457,
          "34": 0.0639353276213303,
          "35": -0.08485031300389802,
          "36": -0.1841653488044245,
          "37": 0.03538615752057462,
          "38": 0.09387082127654825,
          "39": -0.09219284356047297,
          "40": 0.03720978480546188,
          "41": -0.08900045052435851,
          "42": 0.08857148998122126,
          "43": -0.1704631059628019,
          "44": -0.01338432660765547,
          "45": 0.11910446270692401,
          "46": -0.11724533830186515,
          "47": 0.023415634765678713,
          "48": 0.11193286479907079,
          "49": -0.04167922428812377,
          "50": 0.10385628043924047,
          "51": 0.029781194954443698,
          "52": 0.17256448805661145,
          "53": -0.0004352823247843502,
          "54": 0.1723975813731051,
          "55": 0.2183227430814643,
          "56": 0.04245756068634114,
          "57": -0.13311394743433516,
          "58": 0.09905941924803878,
          "59": -0.1345136322977769,
          "60": 0.13151256508241294,
          "61": 0.06970714188630346,
          "62": 0.0628512983779238,
          "63": 0.08465967191153435
        }
      },
      "11": {
        "bias": 0.09359822982859227,
        "weights": {
          "0": -0.12927007563932372,
          "1": -0.012701020302717152,
          "2": -0.06424933537438828,
          "3": -0.04174907240201391,
          "4": 0.02822099110738035,
          "5": 0.26322135933975727,
          "6": -0.03209146991750238,
          "7": -0.022813478443871733,
          "8": -0.07319619240410051,
          "9": -0.043047914911344125,
          "10": 0.09827233553618339,
          "11": 0.12058774723610112,
          "12": 0.045409347585774834,
          "13": -0.05904853743849176,
          "14": 0.13370161209448414,
          "15": 0.29279593632662515,
          "16": -0.008990413676065644,
          "17": 0.07827177127506554,
          "18": 0.11682138579119397,
          "19": 0.020820105536429975,
          "20": 0.0635664436622412,
          "21": 0.10622285391313853,
          "22": 0.08520016089041012,
          "23": 0.04631134907473645,
          "24": 0.11687215730100438,
          "25": 0.034312587847377125,
          "26": 0.06804077741269153,
          "27": 0.20470747929878813,
          "28": -0.022377455735440737,
          "29": 0.2690783207516552,
          "30": 0.13873233441279958,
          "31": -0.09116960131660072,
          "32": -0.004023576198696113,
          "33": -0.09720282420951326,
          "34": 0.0104250811137537,
          "35": -0.05904417386604321,
          "36": -0.05370307321212789,
          "37": 0.13098655468522438,
          "38": -0.08668215297468704,
          "39": 0.2289024703593121,
          "40": 0.04361207770671158,
          "41": -0.03807705063592922,
          "42": 0.17250284831324528,
          "43": -0.06511717272521415,
          "44": -0.15263186504197465,
          "45": 0.10362415029133847,
          "46": 0.0760741978539646,
          "47": 0.11835860779604175,
          "48": 0.1874612658450246,
          "49": 0.16388528180320874,
          "50": 0.17862499744252433,
          "51": 0.1317620091444898,
          "52": -0.10884507674811333,
          "53": 0.22473723978095908,
          "54": 0.19966490364528347,
          "55": 0.18834543058560532,
          "56": -0.0663232025440161,
          "57": 0.0997014029797032,
          "58": -0.029243722707319057,
          "59": -0.04309846303338683,
          "60": -0.15924080555071085,
          "61": 0.14785659168669224,
          "62": -0.10451321830320386,
          "63": -0.024110246040637818
        }
      },
      "12": {
        "bias": 0.24848994460923532,
        "weights": {
          "0": 0.23719315518988374,
          "1": -0.23911877664634876,
          "2": -0.10582649690594309,
          "3": -0.1990886299206234,
          "4": -0.054560401808315076,
          "5": -0.32205457534310566,
          "6": -0.15016481423263503,
          "7": 0.016094780124879762,
          "8": -0.13690218814847813,
          "9": -0.09098966977345285,
          "10": 0.020403541560802672,
          "11": -0.22998825275249424,
          "12": -0.24021128479137863,
          "13": -0.2274131222167962,
          "14": -0.31409749634812945,
          "15": -0.3129119587637812,
          "16": -0.06882850652916885,
          "17": -0.18608270254547646,
          "18": 0.011567130873470152,
          "19": -0.09734219960272647,
          "20": -0.1431374822862127,
          "21": -0.09420040398344974,
          "22": -0.13209164660751943,
          "23": -0.14663152441343147,
          "24": -0.17461370278005744,
          "25": -0.1288813385419065,
          "26": -0.2669367565338442,
          "27": -0.09707724414226371,
          "28": 0.10486215606241328,
          "29": -0.0850365607920846,
          "30": 0.1536370573425488,
          "31": -0.02318954176637167,
          "32": 0.011157038139138164,
          "33": 0.0004314613422647255,
          "34": -0.038004375477807995,
          "35": 0.062138815601211046,
          "36": -0.0349323808440336,
          "37": -0.17039795539001415,
          "38": -0.07537518430886433,
          "39": 0.03920921156576042,
          "40": -0.20920762002434015,
          "41": -0.13877559559006764,
          "42": -0.15545399603326107,
          "43": 0.09048595194915614,
          "44": 0.023841190314726257,
          "45": -0.08439059620181584,
          "46": 0.10024941356522586,
          "47": -0.15761650510677952,
          "48": 0.11872769332923293,
          "49": -0.18729732728145482,
          "50": -0.013025797406570571,
          "51": 0.022471931933904704,
          "52": -0.1459777824388072,
          "53": 0.1416748494390113,
          "54": -0.08346280571713008,
          "55": 0.061450640229831474,
          "56": -0.01608773479047706,
          "57": 0.04118486005775799,
          "58": -0.0684309284636202,
          "59": -0.05153001462891419,
          "60": 0.18729932518643405,
          "61": 0.028361419501136527,
          "62": 0.1174034863892999,
          "63": 0.020171641244390033
        }
      },
      "13": {
        "bias": -0.03905547582296582,
        "weights": {
          "0": -0.02404302517423521,
          "1": -0.09957406228249187,
          "2": 0.06905943259521652,
          "3": -0.05755139387528612,
          "4": 0.0591232708272929,
          "5": -0.060979404370054203,
          "6": -0.13104975591812495,
          "7": 0.17549254478756482,
          "8": -0.2204005536047909,
          "9": 0.10095822658184153,
          "10": -0.00012023523238505055,
          "11": -0.12258997919007193,
          "12": -0.09498542297105368,
          "13": 0.11291835869736552,
          "14": -0.061078004663437234,
          "15": -0.13608130910205177,
          "16": 0.11803040899217425,
          "17": -0.039298776802726545,
          "18": 0.1803568496836558,
          "19": 0.021929106035763105,
          "20": -0.06740680224288156,
          "21": -0.15895539299195036,
          "22": 0.12372562411450505,
          "23": 0.139125451800791,
          "24": -0.2078012279128108,
          "25": -0.15953423239375658,
          "26": 0.05107870343293294,
          "27": -0.18538840489231528,
          "28": 0.01605658264641736,
          "29": -0.1713144224697853,
          "30": 0.1503463091542965,
          "31": 0.025389384630347483,
          "32": 0.05283216599153277,
          "33": -0.05659041441000335,
          "34": -0.05006049115534744,
          "35": 0.04142364760358542,
          "36": 0.0021539068734358477,
          "37": 0.03524699086577708,
          "38": 0.16431172358950258,
          "39": 0.09646665086875972,
          "40": -0.19078131114512392,
          "41": 0.12104477673028342,
          "42": -0.18431606679388074,
          "43": 0.08331823021986558,
          "44": -0.09926382870478116,
          "45": -0.1947463124749359,
          "46": 0.10280406035778718,
          "47": -0.08916817880347984,
          "48": 0.1667517054802936,
          "49": 0.024017614574294008,
          "50": -0.0458831237122723,
          "51": -0.09978216578335468,
          "52": -0.02734300390566639,
          "53": -0.12716930592665568,
          "54": -0.023571105008380194,
          "55": -0.13642968565279437,
          "56": 0.10475181503129509,
          "57": -0.18726353856973038,
          "58": 0.0536685641751287,
          "59": 0.17473498363541287,
          "60": 0.12767114944363783,
          "61": 0.07154296521708417,
          "62": -0.1449607855492669,
          "63": -0.08335347936846854
        }
      },
      "14": {
        "bias": -0.10625623732484454,
        "weights": {
          "0": 0.08987575085331313,
          "1": 0.1379758825775451,
          "2": 0.16017764376788943,
          "3": 0.12253828029543913,
          "4": 0.14450384302233216,
          "5": 0.17973333663659402,
          "6": 0.06754207934937045,
          "7": 0.16878004925746093,
          "8": 0.0812527214407456,
          "9": 0.0330988602549577,
          "10": 0.06795806378028346,
          "11": -0.016857887362316207,
          "12": -0.10421888156822705,
          "13": 0.15667142466300357,
          "14": 0.07571280225015896,
          "15": -0.0018595743400094753,
          "16": 0.1449500062953926,
          "17": 0.20935860067010797,
          "18": 0.2040003287406469,
          "19": -0.14132306883089268,
          "20": 0.06234887652014271,
          "21": -0.04390837471629391,
          "22": 0.06421670604345776,
          "23": -0.0277894762861422,
          "24": 0.1989388654095066,
          "25": 0.18694008614732283,
          "26": 0.08528167481053492,
          "27": 0.20090649727402543,
          "28": -0.06622175479916656,
          "29": 0.03415938242937904,
          "30": 0.20770077343865528,
          "31": 0.03080952931057817,
          "32": -0.08557187958968272,
          "33": -0.05941424308866606,
          "34": -0.15794801691902785,
          "35": 0.17938914627596433,
          "36": -0.203744725069123,
          "37": 0.04224161053272921,
          "38": -0.14642756933790813,
          "39": 0.12863930780752358,
          "40": -0.1663076647841292,
          "41": -0.1457931579615201,
          "42": 0.18198195498413408,
          "43": 0.05109007021740455,
          "44": -0.09116670589617445,
          "45": 0.040424849986336005,
          "46": 0.020618138042355027,
          "47": 0.04314945016940217,
          "48": 0.18672165736498594,
          "49": -0.015421950448988734,
          "50": 0.1722501712904956,
          "51": 0.13907565988065232,
          "52": -0.18956549756004384,
          "53": 0.00023682358697259913,
          "54": -0.10160828063375628,
          "55": -0.008957913357808012,
          "56": 0.15647138285606146,
          "57": -0.12256985948089666,
          "58": 0.055158722381458566,
          "59": -0.014339559615938064,
          "60": -0.023627189855208272,
          "61": 0.12379753001407155,
          "62": 0.05139029071639266,
          "63": 0.06791128171536483
        }
      },
      "15": {
        "bias": 0.13251410614251427,
        "weights": {
          "0": 0.08764965951706352,
          "1": -0.06476263294516099,
          "2": -0.10152638283968857,
          "3": -0.19579582869847106,
          "4": 0.02447778467804773,
          "5": -0.33939666548061037,
          "6": 0.11794230445142542,
          "7": -0.32608997582745475,
          "8": 0.0029217372217687555,
          "9": -0.06868195869858489,
          "10": 0.12784639584301885,
          "11": -0.17340845744755015,
          "12": -0.07274460317280185,
          "13": -0.04039451816941726,
          "14": -0.187450569675054,
          "15": -0.12963360368490293,
          "16": 0.20747286644528193,
          "17": -0.29250095609228066,
          "18": -0.2194668149958407,
          "19": -0.02876782911479203,
          "20": 0.18748496550881005,
          "21": -0.2442975253885823,
          "22": 0.05861890854118379,
          "23": -0.21783651820157865,
          "24": -0.1303291139403967,
          "25": -0.15474796987938652,
          "26": -0.10192915589764726,
          "27": -0.002517050405009959,
          "28": -0.14730825649648996,
          "29": -0.23463867090602689,
          "30": -0.09418196499627841,
          "31": 0.056533543536128564,
          "32": 0.03192839975855069,
          "33": 0.03680218037970338,
          "34": -0.13551283263008698,
          "35": -0.13494956784149406,
          "36": -0.04518154782193312,
          "37": -0.159545315333895,
          "38": 0.005608561457355937,
          "39": -0.18227642898825389,
          "40": 0.04778748223913178,
          "41": 0.1727779932483751,
          "42": -0.046449959220738433,
          "43": -0.11833311929500535,
          "44": 0.03499571893993949,
          "45": -0.20936670209421673,
          "46": 0.10397382647687149,
          "47": -0.12128426798739324,
          "48": 0.13842731025429272,
          "49": -0.24989279650346727,
          "50": -0.10063159083156349,
          "51": -0.02152741924531662,
          "52": 0.1699936667592225,
          "53": -0.23953878316779373,
          "54": 0.08162747065927665,
          "55": -0.07374041120246275,
          "56": 0.07495764044662243,
          "57": 0.04933671266700501,
          "58": -0.07480843965045865,
          "59": -0.16295716540707975,
          "60": -0.16184305770343727,
          "61": -0.057003229541936186,
          "62": -0.039672049531607724,
          "63": -0.10858061466352668
        }
      },
      "16": {
        "bias": -0.03728150745108339,
        "weights": {
          "0": 0.12316796955844088,
          "1": -0.03311590090066918,
          "2": 0.2037325692712381,
          "3": 0.04240758104157484,
          "4": 0.21522449694866197,
          "5": -0.02772618289166381,
          "6": 0.1455234578944405,
          "7": -0.0028040473257966068,
          "8": 0.05294147940310572,
          "9": 0.2579508832649752,
          "10": -0.15618303908343065,
          "11": 0.09459075293180956,
          "12": 0.02483762595645327,
          "13": 0.18877567880407373,
          "14": 0.1794314683511023,
          "15": 0.17176209765452105,
          "16": 0.10363378858027492,
          "17": 0.05999856200948303,
          "18": 0.13480873791999679,
          "19": 0.0720221506987321,
          "20": -0.039290312156868734,
          "21": 0.024390840011218287,
          "22": 0.1640795533355659,
          "23": 0.22823247570247598,
          "24": -0.0025047889486006936,
          "25": 0.1371264144472809,
          "26": 0.029176557080119087,
          "27": 0.1580786285462829,
          "28": -0.07603527165311301,
          "29": -0.061467206136065315,
          "30": 0.11849273905457991,
          "31": 0.00814366288724361,
          "32": -0.15018314868630733,
          "33": -0.01334839871065989,
          "34": 0.21899640831108483,
          "35": 0.09336759842590281,
          "36": -0.0015707561415235867,
          "37": 0.00904108138124943,
          "38": -0.13570165792399386,
          "39": -0.07052863190348486,
          "40": 0.22120820697933768,
          "41": 0.05461308323868561,
          "42": 0.015049655468913263,
          "43": 0.04790494283053569,
          "44": -0.018004285912896933,
          "45": -0.09048327212308738,
          "46": 0.14787929748984457,
          "47": 0.18941150543542667,
          "48": 0.057072961862718034,
          "49": -0.029534434574997027,
          "50": -0.062295019213901626,
          "51": 0.169778103127186,
          "52": -0.07214377895284528,
          "53": -0.025812027143717563,
          "54": -0.18842875242899934,
          "55": 0.14103386380004995,
          "56": -0.05105000422667137,
          "57": 0.0749977519739042,
          "58": -0.17988982879436985,
          "59": 0.18492869335452444,
          "60": -0.13170722479050437,
          "61": -0.011070014756969624,
          "62": -0.10056874619291976,
          "63": 0.16683940884552093
        }
      },
      "17": {
        "bias": -0.25134055303353564,
        "weights": {
          "0": -0.2662022380519798,
          "1": 0.35867066767802924,
          "2": 0.19904692460552056,
          "3": 0.05587199548129946,
          "4": 0.17555514954346652,
          "5": 0.09204497812247919,
          "6": 0.1964379170503833,
          "7": 0.043855523106297534,
          "8": 0.2710884090737185,
          "9": 0.18389829709916858,
          "10": -0.03739019207939773,
          "11": 0.02422796907818829,
          "12": 0.20164102820206692,
          "13": 0.24923877953351994,
          "14": 0.23843796394462186,
          "15": 0.16918453605266842,
          "16": -0.003344402656859817,
          "17": 0.2992304594715305,
          "18": -0.07096628189010258,
          "19": 0.17497925756979305,
          "20": 0.028778772944615647,
          "21": 0.2901858484918258,
          "22": -0.04161974335838685,
          "23": 0.05161495750104871,
          "24": 0.18553454302105574,
          "25": 0.08332856320214978,
          "26": 0.22228387936618327,
          "27": -0.0717446023331629,
          "28": 0.016378864569957036,
          "29": 0.2551858520077954,
          "30": -0.10475539532252255,
          "31": 0.172466260307852,
          "32": -0.142969756176213,
          "33": 0.18373665445556733,
          "34": 0.19050950384299808,
          "35": -0.06535419154607382,
          "36": -0.03630900283070237,
          "37": 0.11045035080684094,
          "38": -0.15923066488357643,
          "39": -0.0340727518076022,
          "40": -0.10689894150856602,
          "41": 0.07873931768704966,
          "42": -0.03351622982248756,
          "43": -0.018563087282160762,
          "44": -0.008091502065582044,
          "45": -0.03561501722451663,
          "46": -0.058114564091419164,
          "47": -0.08703286694714203,
          "48": 0.15105568065317843,
          "49": 0.23463530681424255,
          "50": -0.050177216722960945,
          "51": 0.2496618552906367,
          "52": -0.1564821448035447,
          "53": 0.01630514105355521,
          "54": 0.13048093183367196,
          "55": 0.20004183814211293,
          "56": 0.04733003991870009,
          "57": -0.11989048322150157,
          "58": 0.059323508307860526,
          "59": 0.009676037928359667,
          "60": 0.17115427683963902,
          "61": 0.0505702329719496,
          "62": -0.10714511597373035,
          "63": -0.05627277189982276
        }
      },
      "18": {
        "bias": -0.04014376652399702,
        "weights": {
          "0": -0.08731596363988135,
          "1": 0.03111875459034392,
          "2": -0.2998159708098819,
          "3": 0.016216621944840415,
          "4": -0.06330480118494512,
          "5": 0.0736366672865099,
          "6": -0.05686676971519507,
          "7": -0.2040493146696932,
          "8": -0.032724878407679736,
          "9": -0.03625191899683911,
          "10": -0.14552151301036734,
          "11": 0.01909418116743295,
          "12": -0.09898370214143579,
          "13": -0.18235609135201186,
          "14": -0.11878617210591313,
          "15": 0.07436959824976898,
          "16": 0.07226331384006775,
          "17": -0.2652767233735595,
          "18": -0.03492490538124413,
          "19": -0.14150544209889526,
          "20": 0.062358094131934334,
          "21": -0.11862803192160118,
          "22": 0.060276146763386815,
          "23": -0.028702591583590387,
          "24": -0.09064774783176273,
          "25": -0.09868337709721464,
          "26": 0.01012049579946571,
          "27": -0.06859241246145813,
          "28": 0.13483347979819355,
          "29": -0.20226285498653526,
          "30": -0.21047543496272178,
          "31": -0.028007264940086696,
          "32": 0.1510452534987987,
          "33": -0.17663844225593137,
          "34": -0.08371532425697599,
          "35": -0.13335244690946965,
          "36": 0.13338619136210697,
          "37": -0.21325600198373895,
          "38": 0.036107498635922095,
          "39": -0.18177922211353392,
          "40": -0.022947418518223704,
          "41": -0.08739073828602877,
          "42": 0.11536084996426633,
          "43": -0.21763356099798864,
          "44": -0.21465353911909354,
          "45": 0.08519252004326675,
          "46": -0.1644022757260164,
          "47": -0.07199548881418684,
          "48": -0.13279892175593047,
          "49": 0.05341412317338795,
          "50": 0.015508169442746146,
          "51": -0.05028772099971789,
          "52": 0.03219155480288247,
          "53": -0.0614836697363159,
          "54": -0.08830711957790977,
          "55": 0.05751431286764956,
          "56": 0.10288555989835045,
          "57": 0.11338040663721044,
          "58": 0.020098503038670418,
          "59": -0.0913795646816821,
          "60": -0.14326472674048887,
          "61": -0.11932661606744674,
          "62": 0.07243154363510725,
          "63": -0.20320316277989184
        }
      },
      "19": {
        "bias": -0.426520749840521,
        "weights": {
          "0": -0.20043890700138167,
          "1": 0.23471553980285997,
          "2": 0.18165735105406866,
          "3": -0.027381542012819837,
          "4": 0.1478262168836372,
          "5": 0.34134029226246976,
          "6": 0.22869819360506807,
          "7": 0.37127145278929785,
          "8": 0.10448503492906368,
          "9": 0.2757644089542027,
          "10": -0.06521439783754632,
          "11": 0.35544191789653673,
          "12": -0.07681499775743934,
          "13": 0.07675932062496922,
          "14": 0.1873098615214483,
          "15": 0.3714441297451675,
          "16": -0.11825507312477711,
          "17": -0.004756335478020176,
          "18": 0.26374283586628955,
          "19": 0.18917124328577037,
          "20": -0.16261076155087678,
          "21": 0.30734364074634984,
          "22": -0.021841244154439835,
          "23": 0.05711195431521121,
          "24": 0.27198920686204503,
          "25": 0.20984146886308883,
          "26": -0.04234728330258617,
          "27": 0.19332334261209266,
          "28": 0.01218896074657988,
          "29": 0.10136723701539561,
          "30": 0.14259359602481028,
          "31": -0.06550519976212334,
          "32": -0.059168603488218056,
          "33": 0.19854090997130044,
          "34": -0.07866287796877058,
          "35": 0.14833021440750516,
          "36": -0.11279046300186192,
          "37": 0.14711945804608395,
          "38": -0.1093285463901029,
          "39": 0.20490180015621054,
          "40": -0.029348329413644396,
          "41": 0.03876542498111406,
          "42": 0.1244603100052071,
          "43": 0.13511734936013822,
          "44": -0.1158193966149083,
          "45": -0.05937915989638411,
          "46": 0.11350231302798158,
          "47": 0.23592882849512656,
          "48": -0.16231806200810306,
          "49": -0.027635080453782757,
          "50": 0.0947355560881296,
          "51": 0.15341237603528318,
          "52": -0.20758211687114153,
          "53": 0.2023029533220603,
          "54": -0.007052824511510891,
          "55": 0.21058821345346687,
          "56": -0.1240689956542546,
          "57": -0.12822737148538296,
          "58": -0.06835238488531402,
          "59": 0.18093403577439654,
          "60": -0.09638063757117743,
          "61": 0.19911490404007712,
          "62": 0.006113157112870449,
          "63": 0.10426339851932169
        }
      },
      "20": {
        "bias": -0.08408322782071324,
        "weights": {
          "0": 0.11582528156652823,
          "1": -0.22878956366164188,
          "2": 0.0033781215306620273,
          "3": 0.07500502545063877,
          "4": 0.1597116480244361,
          "5": 0.1137843568072714,
          "6": -0.11472044739362815,
          "7": 0.013871969921998982,
          "8": 0.14225612945114027,
          "9": 0.008283604591763073,
          "10": -0.00042068722810098433,
          "11": 0.09701703326380558,
          "12": 0.02897988147656554,
          "13": -0.05171534493192128,
          "14": 0.024687174137742587,
          "15": 0.11912895458782541,
          "16": 0.15855170266945912,
          "17": 0.13134104477125522,
          "18": -0.04986331041138088,
          "19": -0.08382412296411255,
          "20": -0.110796950738409,
          "21": -0.06312496812891262,
          "22": -0.18697919122516837,
          "23": -0.007546238680042895,
          "24": 0.06444536464225666,
          "25": 0.05726384915159266,
          "26": 0.04745572934684635,
          "27": -0.17278877334404552,
          "28": 0.10075247267813732,
          "29": -0.0072446837163566,
          "30": 0.012037341555250531,
          "31": -0.16676163417781176,
          "32": -0.025761841432786054,
          "33": 0.1124065231750731,
          "34": -0.0807071050918346,
          "35": -0.18402223887044544,
          "36": -0.1263313062539185,
          "37": -0.21963707300878413,
          "38": 0.03700231680723478,
          "39": -0.1931850692392077,
          "40": -0.21907974351062323,
          "41": -0.03355444949956545,
          "42": 0.09174064030021636,
          "43": 0.10364168047670524,
          "44": -0.13057989340153803,
          "45": 0.15018757172880612,
          "46": -0.029838400986012908,
          "47": -0.14768603201560113,
          "48": 0.1815093716462093,
          "49": -0.1312500414674617,
          "50": -0.07616665596848662,
          "51": -0.23892656564464956,
          "52": 0.18872483042447738,
          "53": 0.007474714718380251,
          "54": 0.09817977451591357,
          "55": -0.18292071900387982,
          "56": -0.13145955009521218,
          "57": 0.13417162348748826,
          "58": 0.015039823567127759,
          "59": 0.15056792456791682,
          "60": -0.13076733633441,
          "61": -0.021841941117543236,
          "62": 0.15923607557396383,
          "63": -0.023487843254656224
        }
      },
      "21": {
        "bias": 0.0520504193323142,
        "weights": {
          "0": 0.029734539270026925,
          "1": -0.004737465135203988,
          "2": -0.015921027911476184,
          "3": -0.08457084736881615,
          "4": 0.11967445232777164,
          "5": -0.07443089240009303,
          "6": -0.21917449926906585,
          "7": 0.0934813594094582,
          "8": 0.08641428231381904,
          "9": 0.07144303554544536,
          "10": -0.04215305351195504,
          "11": -0.03996639134053362,
          "12": 0.14394566080037155,
          "13": -0.014367786248389264,
          "14": 0.048989356138663384,
          "15": -0.18558207085966022,
          "16": -0.034777373364401454,
          "17": -0.06708848837099667,
          "18": -0.1689612579164051,
          "19": -0.09372389028887815,
          "20": -0.09623756570128394,
          "21": -0.04983150243279766,
          "22": -0.12355656988632618,
          "23": -0.05814919121448454,
          "24": 0.04986387285401006,
          "25": 0.08084563682566183,
          "26": 0.017983907385933945,
          "27": 0.005176905645190566,
          "28": -0.19391106524682483,
          "29": 0.02011414770629676,
          "30": -0.2135882299338943,
          "31": -0.0033340257932507372,
          "32": -0.1641016312150762,
          "33": -0.11177263807669381,
          "34": 0.019482043295422902,
          "35": -0.21253788410589297,
          "36": -0.20679791123241573,
          "37": -0.013841607377899606,
          "38": -0.20267416010361963,
          "39": -0.09439361979925825,
          "40": 0.14109617211205966,
          "41": 0.11617960131135781,
          "42": 0.07942618111171212,
          "43": -0.15089552140690082,
          "44": 0.0878939536316949,
          "45": -0.06773229900003093,
          "46": 0.11582549440791585,
          "47": -0.11948979240713885,
          "48": 0.13818165445049693,
          "49": 0.012721144016461801,
          "50": -0.033864521253559064,
          "51": -0.21679434862214353,
          "52": -0.16413255780724578,
          "53": 0.10267363735799774,
          "54": -0.0919442334888934,
          "55": 0.0927504937569304,
          "56": -0.18583643483351303,
          "57": -0.2129054104980222,
          "58": -0.11548455870580185,
          "59": 0.057643061514918444,
          "60": 0.07394763117626661,
          "61": -0.12567111625008734,
          "62": -0.0070145976041775665,
          "63": 0.15372680395915622
        }
      },
      "22": {
        "bias": -0.03543961761951552,
        "weights": {
          "0": 0.022927423001060723,
          "1": -0.32851250290223255,
          "2": -0.15380448333867458,
          "3": -0.21588671893605982,
          "4": 0.01031434543623701,
          "5": -0.0062622187369405,
          "6": -0.04434240981511595,
          "7": -0.09682879095190478,
          "8": 0.08557309652130043,
          "9": -0.24371962154937593,
          "10": 0.08838698889613665,
          "11": 0.02107566054886237,
          "12": -0.042153291877752984,
          "13": -0.09790578710043508,
          "14": -0.0989792483673488,
          "15": -0.177394046453424,
          "16": 0.16779185078983766,
          "17": -0.19200403717719364,
          "18": -0.1929280247242554,
          "19": -0.13655727407402396,
          "20": -0.04166446592950554,
          "21": -0.10945460169318248,
          "22": -0.10339991161385396,
          "23": -0.08258028292307866,
          "24": 0.016177985522940315,
          "25": 0.14898635448385658,
          "26": -0.11796817066631299,
          "27": -0.12637140059790664,
          "28": -0.1427982866211012,
          "29": -0.26211430938072505,
          "30": 0.11597615755673561,
          "31": 0.06683216866354151,
          "32": 0.08408128472038799,
          "33": -0.21116078300429217,
          "34": 0.09725449917099514,
          "35": -0.18811839998701368,
          "36": 0.09668938623928455,
          "37": 0.06986249854840847,
          "38": -0.04600636244982142,
          "39": 0.1221997015472251,
          "40": -0.23101710723038646,
          "41": -0.007557462395112743,
          "42": -0.1075183374205126,
          "43": -0.1437863706198476,
          "44": -0.016366035443548022,
          "45": 0.010471339699973452,
          "46": -0.11633562166126706,
          "47": -0.13917156785479545,
          "48": 0.14568705026928086,
          "49": -0.16783708226812372,
          "50": -0.028296376984645964,
          "51": 0.11352891258568101,
          "52": 0.04204905443911951,
          "53": -0.1604757487852115,
          "54": 0.1175493963776059,
          "55": -0.04724591941782038,
          "56": 0.09703855707982006,
          "57": -0.11319497889313491,
          "58": -0.11356433807973856,
          "59": 0.16157273440443934,
          "60": -0.14361319100902165,
          "61": -0.23597156286859716,
          "62": -0.02698373206391916,
          "63": -0.0009257758934965953
        }
      },
      "23": {
        "bias": -0.0817489057518336,
        "weights": {
          "0": -0.0074763731196482485,
          "1": 0.05663660150273848,
          "2": 0.11225338848120839,
          "3": -0.0009505615283644561,
          "4": -0.018559197579899822,
          "5": 0.1436206867348762,
          "6": 0.14632287874739094,
          "7": 0.005121943246741347,
          "8": -0.06459294167733882,
          "9": -0.008403082595246828,
          "10": -0.01301846966022646,
          "11": 0.06470907068574727,
          "12": 0.1975179118536926,
          "13": 0.1707992447741495,
          "14": -0.1422804702294668,
          "15": -0.11985649594197775,
          "16": -0.0709683909166445,
          "17": -0.1258054547480624,
          "18": 0.1537975627071918,
          "19": -0.058725796056861165,
          "20": 0.1864573428163524,
          "21": -0.008643287129818966,
          "22": -0.04074574732994802,
          "23": 0.11163153086340245,
          "24": 0.20929574515743138,
          "25": 0.0015349653283116642,
          "26": -0.12698235147986406,
          "27": -0.09152557231824357,
          "28": 0.16447180389284366,
          "29": 0.1623296574628365,
          "30": -0.11943170898652686,
          "31": 0.17296057111957408,
          "32": -0.03212731458456154,
          "33": 0.07549738595647204,
          "34": 0.07159698603694872,
          "35": 0.1981244474050872,
          "36": 0.04023205060512662,
          "37": 0.05974148189345534,
          "38": 0.06676690214684976,
          "39": 0.12210145604841526,
          "40": 0.20647774055463683,
          "41": 0.034134449858175264,
          "42": 0.07191394380859405,
          "43": 0.17588169021267044,
          "44": -0.13363792041000225,
          "45": -0.005715563689066035,
          "46": -0.017725360664311005,
          "47": 0.15269734159668533,
          "48": 0.18137323384786208,
          "49": 0.007056695061440864,
          "50": 0.03373848761414621,
          "51": 0.07819600613161283,
          "52": 0.12462596324551906,
          "53": 0.21993157775855054,
          "54": 0.0873465538841445,
          "55": 0.0003581230349161662,
          "56": -0.08449602249328314,
          "57": 0.07851004170499683,
          "58": 0.13093089747646963,
          "59": 0.14291362246138603,
          "60": -0.11513869564994955,
          "61": 0.08773760754216611,
          "62": 0.054523417738164055,
          "63": 0.11293399743394497
        }
      },
      "24": {
        "bias": 0.17746053616356314,
        "weights": {
          "0": 0.008185670332431632,
          "1": -0.12735367773298148,
          "2": -0.27159086293580464,
          "3": -0.12744826112352345,
          "4": -0.15411785740640577,
          "5": -0.07937744712895271,
          "6": -0.18151890390329473,
          "7": -0.25862034705516596,
          "8": -0.06810337708950807,
          "9": -0.3161661415932398,
          "10": -0.22641499749162733,
          "11": -0.3603482850209395,
          "12": -0.09527133442506579,
          "13": -0.032833956178205045,
          "14": -0.21862192460450514,
          "15": -0.0013735045605678575,
          "16": -0.1621255987150026,
          "17": -0.052106076993417946,
          "18": -0.2933208931988249,
          "19": -0.2168996708600848,
          "20": 0.21665272523216308,
          "21": 0.007829359794662892,
          "22": -0.05114928304195308,
          "23": -0.13365158967515156,
          "24": -0.06913007860185894,
          "25": -0.040909568773878933,
          "26": -0.10331775450298927,
          "27": -0.13924650351059936,
          "28": -0.06123012056205554,
          "29": -0.23189772105240292,
          "30": 0.14957808700135666,
          "31": -0.0816408157263682,
          "32": 0.14882869879573457,
          "33": 0.0595702097753424,
          "34": -0.02317359322656718,
          "35": -0.0829869871290874,
          "36": 0.09862019742973918,
          "37": 0.043895535375287835,
          "38": 0.17400271644913662,
          "39": 0.10372529229185483,
          "40": 0.02308798558188379,
          "41": 0.15073753350594624,
          "42": -0.14216787419243285,
          "43": 0.028893456011735534,
          "44": 0.018459264139753642,
          "45": -0.0718482017419269,
          "46": 0.16100770440006085,
          "47": -0.15687906474119584,
          "48": -0.005487587703029835,
          "49": -0.18303337419837612,
          "50": 0.14536837572511763,
          "51": -0.18913535072290547,
          "52": -0.03316705841432631,
          "53": -0.09363723110962834,
          "54": -0.07787296072223127,
          "55": 0.005298351852071709,
          "56": 0.05446494850601515,
          "57": 0.16608759248277222,
          "58": 0.11737588207057274,
          "59": -0.13915354442722078,
          "60": 0.06446820098278071,
          "61": -0.27989998569576247,
          "62": -0.18640079596732936,
          "63": -0.03057383345504777
        }
      },
      "25": {
        "bias": 0.10795743461589533,
        "weights": {
          "0": 0.07351854339465201,
          "1": -0.26428341676930645,
          "2": 0.009139027859055297,
          "3": 0.04258397458081868,
          "4": 0.08235226897978458,
          "5": 0.01697130887096279,
          "6": -0.133403414693943,
          "7": 0.0425691506547043,
          "8": 0.039593063446580194,
          "9": -0.10608685865958191,
          "10": -0.15073096157946558,
          "11": 0.0557399731852521,
          "12": -0.1894466826485747,
          "13": -0.11856590334703411,
          "14": -0.2766061119027347,
          "15": -0.27964194424251876,
          "16": 0.19599082761428496,
          "17": -0.18938289600952674,
          "18": -0.16232540694300182,
          "19": -0.08614468931758666,
          "20": -0.07960082251720065,
          "21": -0.029838897593654396,
          "22": 0.028932481082434985,
          "23": 0.023901348700339314,
          "24": 0.01060317313415091,
          "25": 0.0855328466606008,
          "26": -0.06042601977082529,
          "27": -0.01433951438463366,
          "28": -0.20955904455738814,
          "29": -0.17161349082268737,
          "30": -0.21545273764662576,
          "31": -0.17455793714683068,
          "32": 0.009647686513625452,
          "33": -0.09296212929276977,
          "34": 0.028963050448470504,
          "35": 0.03713005622462375,
          "36": -0.039307306472289694,
          "37": 0.03855048970380732,
          "38": -0.12230708186176145,
          "39": -0.19817282304946016,
          "40": -0.043715455175775686,
          "41": -0.033886434594317595,
          "42": 0.01786189317246854,
          "43": -0.20418691823902682,
          "44": 0.04655971403567304,
          "45": 0.01819349570395757,
          "46": -0.1826991847052856,
          "47": 0.08449530570441183,
          "48": -0.010990004986242603,
          "49": 0.033296025082110325,
          "50": -0.014954446065747546,
          "51": 0.03408763134062419,
          "52": 0.14494939946953683,
          "53": -0.07298939000785923,
          "54": -0.06877994776209152,
          "55": -0.198739530482131,
          "56": -0.05598487997609128,
          "57": 0.07259316820177446,
          "58": -0.10999844053869123,
          "59": 0.013855953785161135,
          "60": -0.039019862199607916,
          "61": -0.16387000541291546,
          "62": 0.08352655555511548,
          "63": -0.2269942125911592
        }
      },
      "26": {
        "bias": -0.10462204077453915,
        "weights": {
          "0": 0.05694855638794362,
          "1": -0.28082385009018007,
          "2": -0.060929789270471914,
          "3": -0.060524529020596324,
          "4": 0.09276467125769744,
          "5": -0.14360455767379735,
          "6": -0.039392390355606585,
          "7": -0.052871556276317365,
          "8": -0.28098438701807665,
          "9": -0.2791145074357343,
          "10": -0.14406517611786251,
          "11": -0.08917459389782359,
          "12": -0.03000812245769456,
          "13": -0.18724573498033473,
          "14": -0.021113039164870378,
          "15": -0.027232045190978556,
          "16": -0.15006945748318684,
          "17": -0.05105408690519984,
          "18": -0.1975184197445886,
          "19": -0.18428954729585675,
          "20": -0.04170394236215048,
          "21": 0.077079387714957,
          "22": -0.16564407866741057,
          "23": -0.10668218994409018,
          "24": -0.08267032625214797,
          "25": -0.04483358148707463,
          "26": -0.04219487926892464,
          "27": -0.07726993971069056,
          "28": -0.08216470406939018,
          "29": -0.007547937243896666,
          "30": 0.06526835563477569,
          "31": -0.21898192729674532,
          "32": 0.05561463319628536,
          "33": 0.09523368825492819,
          "34": 0.07752833603382571,
          "35": -0.1426531104788005,
          "36": -0.09052976038688808,
          "37": 0.1060429511163501,
          "38": -0.17354262782910632,
          "39": -0.06067101325602141,
          "40": 0.05622984164370691,
          "41": -0.15932881776674065,
          "42": 0.12640794616711679,
          "43": -0.07611160821436118,
          "44": 0.05464336598263095,
          "45": 0.020088864075187854,
          "46": 0.133650241128192,
          "47": -0.1735875078369012,
          "48": -0.003143963396252806,
          "49": -0.1853455928830339,
          "50": 0.17437131382472223,
          "51": -0.07250231045157018,
          "52": -0.05786125639011932,
          "53": -0.04236722918100202,
          "54": 0.04686168486440259,
          "55": -0.15591446698764455,
          "56": -0.04273563532094493,
          "57": 0.023415524210259622,
          "58": 0.1185189997595159,
          "59": -0.18607214074052067,
          "60": 0.005453135515826824,
          "61": -0.06465908059732979,
          "62": 0.12538032178218106,
          "63": -0.0029686434519981602
        }
      },
      "27": {
        "bias": -0.07217050360470903,
        "weights": {
          "0": -0.08648552448063605,
          "1": 0.1262602760763038,
          "2": 0.0010270576413333073,
          "3": -0.15157387422203128,
          "4": -0.028021646146275406,
          "5": -0.0651177613636512,
          "6": 0.0003310675340865848,
          "7": -0.08129415805299384,
          "8": -0.09330438927074573,
          "9": -0.03087526814516092,
          "10": -0.16580389205487817,
          "11": -0.07148439468278334,
          "12": -0.11018262496629859,
          "13": 0.15519527617627885,
          "14": -0.18060246580518358,
          "15": 0.023146190621295814,
          "16": -0.12806628158288247,
          "17": -0.18851484152683914,
          "18": 0.008258154109564552,
          "19": 0.09908338699380825,
          "20": -0.09833869361284076,
          "21": 0.13349866517389827,
          "22": 0.18798175767468484,
          "23": 0.18209900588971004,
          "24": 0.020499061545682346,
          "25": -0.13478452390826548,
          "26": 0.1277852575722087,
          "27": 0.07861615475784729,
          "28": -0.0037290328541196073,
          "29": -0.201049470551414,
          "30": -0.15133127900055096,
          "31": 0.15586654581537265,
          "32": 0.11078771417105913,
          "33": -0.12181010296508588,
          "34": 0.15802020572456874,
          "35": 0.011937828300252022,
          "36": -0.10971558896241454,
          "37": 0.15371781821428912,
          "38": 0.10616445564079527,
          "39": 0.10589452688774328,
          "40": 0.016660966209271707,
          "41": -0.16737833591640527,
          "42": -0.02381020899300495,
          "43": -0.2035954286793674,
          "44": 0.12260961964699807,
          "45": 0.15222002595826203,
          "46": -0.11931558018269142,
          "47": 0.08576453682497648,
          "48": -0.13659523769728174,
          "49": 0.16178183626034778,
          "50": 0.17380378693953305,
          "51": -0.11575958629951309,
          "52": -0.00009422614889397328,
          "53": 0.024751899035196,
          "54": -0.1978587520130646,
          "55": 0.12853680060209174,
          "56": 0.042908676079531506,
          "57": -0.01818836539373826,
          "58": 0.20068524762283896,
          "59": -0.09372955677075533,
          "60": -0.06150930368152441,
          "61": 0.0907371257476031,
          "62": -0.07352639266068936,
          "63": 0.09032620536821129
        }
      },
      "28": {
        "bias": -0.19743279873296832,
        "weights": {
          "0": -0.35520883352729615,
          "1": 0.3657028032952935,
          "2": 0.256276798771394,
          "3": 0.2466631812898807,
          "4": 0.22147951963180784,
          "5": 0.28590484603658634,
          "6": 0.012517688056442128,
          "7": 0.18057820615325892,
          "8": 0.3103639454563658,
          "9": 0.2875910135729163,
          "10": -0.1316370045184511,
          "11": 0.288616716111503,
          "12": 0.16440284934560387,
          "13": 0.03462640025086061,
          "14": 0.07261658581923847,
          "15": 0.3904724383167071,
          "16": -0.07949950162073052,
          "17": 0.12775798774303318,
          "18": 0.32080837380092214,
          "19": 0.22299519871520576,
          "20": -0.008674436111397054,
          "21": 0.1678550649396214,
          "22": 0.1317154865285488,
          "23": 0.18871708576641688,
          "24": -0.0875079728384813,
          "25": 0.08407263867909008,
          "26": 0.10302957739168422,
          "27": 0.18672949726243002,
          "28": 0.1434902082526043,
          "29": 0.22395313073789655,
          "30": -0.04424323349204984,
          "31": 0.04757126488605006,
          "32": 0.024924867112875906,
          "33": 0.023335955703006988,
          "34": 0.006108651188765753,
          "35": -0.05875134366549228,
          "36": -0.09767902142720067,
          "37": -0.05160819830688952,
          "38": 0.09359395261358755,
          "39": 0.09589408405442917,
          "40": 0.12922799972864116,
          "41": 0.02263296677575814,
          "42": -0.2163355489881912,
          "43": -0.10091677319618164,
          "44": -0.12075199186409141,
          "45": 0.09837813989426201,
          "46": 0.055199631626318864,
          "47": 0.03169695740899157,
          "48": 0.11716882580847927,
          "49": 0.014808606423632558,
          "50": 0.035644423903650725,
          "51": 0.125106552981648,
          "52": -0.1163425204624111,
          "53": 0.11743010080050811,
          "54": -0.10545440050498206,
          "55": 0.07035566008005498,
          "56": 0.1300672001718484,
          "57": 0.20605410365165094,
          "58": -0.035065437491551325,
          "59": -0.021918030618029116,
          "60": 0.12147089536975857,
          "61": -0.035244732872916,
          "62": -0.08381455760058037,
          "63": -0.13674630810127325
        }
      },
      "29": {
        "bias": 0.43146094413477015,
        "weights": {
          "0": 0.3706477678145157,
          "1": -0.30835896784598205,
          "2": -0.06092458726651545,
          "3": -0.2963779875549258,
          "4": -0.01988889802715827,
          "5": -0.07273113677483267,
          "6": 0.014611598281144014,
          "7": -0.29801974087463895,
          "8": -0.21657507972114978,
          "9": -0.2945675849676217,
          "10": -0.1643253241391293,
          "11": -0.3452053957120816,
          "12": 0.01808326047631442,
          "13": -0.08317269770388556,
          "14": -0.055664436146777976,
          "15": -0.270593273662943,
          "16": 0.18617904685927777,
          "17": -0.019848615701393745,
          "18": -0.23079385556035356,
          "19": -0.018752297761173903,
          "20": -0.12001410338002444,
          "21": -0.29376707212413217,
          "22": -0.10721457482116037,
          "23": -0.05936060385455964,
          "24": -0.17888541650790918,
          "25": 0.08108181081702673,
          "26": -0.21310061301460761,
          "27": -0.0969134150087578,
          "28": -0.03384708259999108,
          "29": -0.030842194689471143,
          "30": -0.06885000061960345,
          "31": -0.1628525981455662,
          "32": -0.16253776238704568,
          "33": -0.19947330055350934,
          "34": -0.16650107200619682,
          "35": -0.2399085889233397,
          "36": 0.241390828530477,
          "37": -0.26038761192476395,
          "38": 0.07186813837150624,
          "39": -0.24390691973730605,
          "40": -0.042340290746617604,
          "41": -0.13785106061852956,
          "42": -0.06909579508142501,
          "43": -0.15802978750203361,
          "44": 0.008062288644727527,
          "45": -0.004514559721387416,
          "46": -0.0012127441305586693,
          "47": -0.048003082950324086,
          "48": 0.10716422891335972,
          "49": -0.10087261967861576,
          "50": -0.09188018126445051,
          "51": -0.20363476790789845,
          "52": -0.0765571405608905,
          "53": -0.2518314871787378,
          "54": 0.24738724736453382,
          "55": -0.13920232916953879,
          "56": 0.04382001238422921,
          "57": 0.04148824018609578,
          "58": 0.08403582723320928,
          "59": -0.14636566636678078,
          "60": 0.13411150054783735,
          "61": -0.14296282689658743,
          "62": 0.08740001093408406,
          "63": 0.05393212065537353
        }
      },
      "30": {
        "bias": -0.05481784242188961,
        "weights": {
          "0": 0.06163723117023703,
          "1": -0.0047035725727029715,
          "2": 0.030532523547518717,
          "3": 0.047759855177748486,
          "4": -0.1726359584127633,
          "5": 0.05412486844055722,
          "6": 0.04413029662890148,
          "7": -0.2250798481252468,
          "8": -0.2177388937209144,
          "9": 0.09989860499527302,
          "10": 0.08905746754271182,
          "11": -0.00025253614872748474,
          "12": -0.14400409164092276,
          "13": -0.19651017749321076,
          "14": 0.027778386174898806,
          "15": -0.26908184538469276,
          "16": 0.16663394802779183,
          "17": -0.15841753228067576,
          "18": -0.16364348749449006,
          "19": 0.11071602939019859,
          "20": 0.151758272836592,
          "21": -0.07402307180219789,
          "22": 0.1587388967561328,
          "23": 0.14082309043735955,
          "24": -0.03811978543113141,
          "25": 0.06926518579734624,
          "26": -0.16912395185365858,
          "27": 0.02619113593345193,
          "28": 0.04776907756932303,
          "29": -0.12334004279941806,
          "30": -0.14663060035857473,
          "31": -0.09363701303726979,
          "32": -0.18130070307413473,
          "33": -0.04843119709689775,
          "34": -0.21739469789728588,
          "35": 0.11635300098173296,
          "36": 0.12306849449913096,
          "37": -0.11585854811890811,
          "38": -0.20428965958126785,
          "39": -0.16701657404065873,
          "40": -0.17953152941633357,
          "41": -0.11247491562837171,
          "42": 0.05472186488473512,
          "43": 0.0018045448004626642,
          "44": -0.18366126697750174,
          "45": 0.0941891204098122,
          "46": 0.10193291313523926,
          "47": -0.13129023639323115,
          "48": -0.04023608249863403,
          "49": -0.08916166902812585,
          "50": -0.046069477711530915,
          "51": -0.06852632775879569,
          "52": 0.13911191428785308,
          "53": -0.10330443985818917,
          "54": -0.058166723060271146,
          "55": -0.024342447834088548,
          "56": -0.0212542337359114,
          "57": -0.010621196189488383,
          "58": -0.11068835170759793,
          "59": 0.019085040677254046,
          "60": 0.049627891383517295,
          "61": -0.1150288071108751,
          "62": 0.06437776177336674,
          "63": -0.22698613053633276
        }
      },
      "31": {
        "bias": -0.19931393615865553,
        "weights": {
          "0": 0.06531548989585129,
          "1": -0.0008099968325246098,
          "2": -0.12598934858481842,
          "3": 0.16127405724976315,
          "4": -0.1309314431405739,
          "5": -0.08939924009163219,
          "6": -0.037996769890138254,
          "7": -0.05122591070675331,
          "8": -0.14083141388882933,
          "9": 0.09030070758997061,
          "10": -0.06600798895502318,
          "11": -0.0587530763613091,
          "12": 0.1497113333334051,
          "13": 0.05086892978409869,
          "14": 0.202229198830729,
          "15": -0.0968471535799499,
          "16": 0.08164197782673373,
          "17": -0.15656730479880232,
          "18": 0.1373982898438018,
          "19": -0.1369531914874533,
          "20": -0.08552862991569649,
          "21": -0.16864783995328547,
          "22": 0.17222659035151486,
          "23": -0.05315655445930199,
          "24": 0.0029460183338061584,
          "25": 0.12638825599390413,
          "26": -0.172304446154343,
          "27": -0.041255767172578395,
          "28": -0.04083995414665816,
          "29": 0.11289962629340942,
          "30": 0.04100021421411116,
          "31": 0.19139057419202035,
          "32": 0.06759832383788685,
          "33": 0.07695358523167574,
          "34": -0.002110593405831209,
          "35": -0.04952407775114748,
          "36": 0.05433597525684875,
          "37": -0.0783375488848995,
          "38": 0.046655661234340104,
          "39": -0.07678760393097776,
          "40": -0.062347537800941044,
          "41": 0.12446346637624596,
          "42": 0.1357292411100453,
          "43": -0.08480807262651957,
          "44": -0.06244602793554603,
          "45": 0.11936997896169821,
          "46": -0.07758088866051789,
          "47": 0.02273747571565807,
          "48": -0.0016705686931977014,
          "49": -0.04707610261557744,
          "50": -0.09081673299062787,
          "51": -0.040060949526740296,
          "52": 0.19508363593285638,
          "53": -0.1516375957071634,
          "54": 0.06601433894925647,
          "55": -0.09615203330248936,
          "56": -0.03862291139428886,
          "57": -0.0991356406619956,
          "58": -0.1203695454425051,
          "59": 0.18996963819628274,
          "60": 0.1479280734043643,
          "61": -0.11772635296169558,
          "62": -0.04012554296144741,
          "63": 0.15766040472053008
        }
      },
      "32": {
        "bias": 0.055305127123253105,
        "weights": {
          "0": 0.2224096452102854,
          "1": -0.15161255101794974,
          "2": -0.20354358102166797,
          "3": -0.19506634915652143,
          "4": -0.20120293686744803,
          "5": -0.018068592697933702,
          "6": -0.143901676713008,
          "7": -0.2720609743423687,
          "8": -0.2993629256974942,
          "9": -0.13444987515561121,
          "10": -0.047840120498464866,
          "11": -0.3099996540071586,
          "12": 0.15859259359283356,
          "13": 0.005976218418260201,
          "14": 0.000921478527663513,
          "15": -0.08438572696773886,
          "16": 0.1411645752258589,
          "17": -0.2680772899268173,
          "18": -0.1864675861704867,
          "19": -0.18718761032764175,
          "20": -0.1522660414458418,
          "21": -0.15622565982312697,
          "22": -0.1392316972010205,
          "23": -0.1591434847420355,
          "24": -0.24466056494003363,
          "25": 0.05099969811756695,
          "26": -0.2441466038025026,
          "27": 0.08089037240113961,
          "28": -0.10731256947726182,
          "29": -0.11681640661183665,
          "30": -0.1471622033882208,
          "31": -0.23109098506105552,
          "32": -0.0659736542213123,
          "33": 0.10928346359196903,
          "34": -0.2147010553140318,
          "35": -0.009245552196724755,
          "36": 0.1808513826438427,
          "37": 0.137817281145624,
          "38": 0.11755524459276967,
          "39": -0.08732116345034667,
          "40": -0.2094416947833161,
          "41": -0.14990857376306116,
          "42": -0.015502009466699065,
          "43": -0.1466977850588398,
          "44": 0.017758864604394874,
          "45": 0.045623243381254015,
          "46": -0.11932101844560908,
          "47": 0.05043078273686827,
          "48": 0.11638606707568143,
          "49": -0.14052198438079982,
          "50": 0.021024507898765508,
          "51": -0.21144216943461,
          "52": -0.035857742438375806,
          "53": -0.11586932490437939,
          "54": 0.14439608351564165,
          "55": -0.011024350715329515,
          "56": 0.13720822620918668,
          "57": 0.1690800534257863,
          "58": 0.19733998957172827,
          "59": 0.0243031416865065,
          "60": -0.05928803439565552,
          "61": 0.09882327341793043,
          "62": -0.006483029523570278,
          "63": -0.1681317668383727
        }
      },
      "33": {
        "bias": 0.0903538617539311,
        "weights": {
          "0": -0.06022842519229973,
          "1": 0.23705683848573858,
          "2": 0.08447074109714288,
          "3": -0.10668677336913683,
          "4": 0.01100738427327965,
          "5": 0.053324728482958945,
          "6": -0.14587752458520717,
          "7": -0.029017181698680176,
          "8": -0.10751476131113324,
          "9": 0.22574577639114513,
          "10": 0.13423436219393198,
          "11": 0.15361484112760707,
          "12": 0.018680993885115075,
          "13": 0.016923013559983963,
          "14": 0.10119045911913269,
          "15": -0.0693512900236363,
          "16": 0.1738982426648483,
          "17": 0.20001343027758373,
          "18": 0.0010974442874408944,
          "19": 0.24948919519118545,
          "20": -0.08067529663487769,
          "21": 0.1693726523887406,
          "22": 0.09585017466299826,
          "23": 0.023798271882433976,
          "24": 0.1327213158320597,
          "25": 0.18251208081828954,
          "26": -0.04636715251149669,
          "27": -0.009281239166847487,
          "28": -0.14822897990578518,
          "29": -0.03338010624810277,
          "30": -0.10711439922414799,
          "31": -0.04331022918580773,
          "32": 0.02767670360776293,
          "33": -0.11952818553093969,
          "34": 0.10318586815456893,
          "35": -0.06645780929372139,
          "36": 0.15321184738723,
          "37": -0.01920546634611351,
          "38": 0.2143233600557822,
          "39": -0.13446375354245543,
          "40": 0.03733572569578166,
          "41": -0.07266802853243676,
          "42": -0.03685616917729772,
          "43": 0.20730460687023827,
          "44": 0.18309825158798176,
          "45": 0.20486635867389655,
          "46": -0.1458595224647946,
          "47": 0.19663898875856525,
          "48": -0.08616804186750401,
          "49": -0.12223503430164348,
          "50": 0.09716334630660482,
          "51": -0.023029343846153,
          "52": -0.1793719543044134,
          "53": 0.12146557047431682,
          "54": 0.021701310988234385,
          "55": -0.10437274882880379,
          "56": -0.027938582994220522,
          "57": 0.16698758673771347,
          "58": -0.0875650822259893,
          "59": 0.1590501509621657,
          "60": -0.12625840013137582,
          "61": 0.02170738519753399,
          "62": 0.01657403180232358,
          "63": 0.2197330253672188
        }
      },
      "34": {
        "bias": 0.27091265342613036,
        "weights": {
          "0": 0.1475251164349427,
          "1": -0.06602425182420528,
          "2": -0.16590601154321882,
          "3": -0.10647550889844141,
          "4": -0.042559121568871615,
          "5": -0.03805944176744998,
          "6": -0.04087318441732878,
          "7": -0.19216549633170962,
          "8": -0.27102619043354403,
          "9": -0.030497340239665157,
          "10": -0.20115343973178426,
          "11": -0.1224342772541523,
          "12": 0.1352275763704284,
          "13": -0.08341870692858355,
          "14": -0.0108049181142009,
          "15": -0.2200981543586022,
          "16": 0.13213275971624738,
          "17": -0.21792683493312232,
          "18": -0.01706957103748124,
          "19": -0.05735347704470332,
          "20": -0.10278402084043296,
          "21": -0.12117248725345471,
          "22": -0.12414026816225116,
          "23": -0.07224821800968735,
          "24": -0.1810165257574893,
          "25": -0.07772427395987312,
          "26": -0.22307877986947083,
          "27": -0.21992466051917112,
          "28": -0.10080707163885178,
          "29": 0.028312873777766256,
          "30": 0.07058642980759083,
          "31": -0.12546500808949498,
          "32": 0.16581225710908837,
          "33": -0.24593801787456035,
          "34": -0.19312091218736338,
          "35": 0.013871286207030698,
          "36": -0.019631489215939706,
          "37": -0.08516047993722027,
          "38": -0.1826866654197512,
          "39": 0.0060063187698566126,
          "40": -0.12293881983600417,
          "41": 0.18163891139250313,
          "42": 0.004741241019300697,
          "43": -0.06348478312082206,
          "44": -0.11875240393524929,
          "45": -0.10271763104264926,
          "46": 0.10639060843475873,
          "47": -0.15280941167244233,
          "48": -0.04884091103197254,
          "49": -0.22084244985556847,
          "50": -0.019411945580853494,
          "51": -0.019195783663224854,
          "52": 0.07943964820475058,
          "53": -0.020425314329792384,
          "54": -0.00028793477749763284,
          "55": -0.15496349709368618,
          "56": 0.08780324134587102,
          "57": -0.08992458853238723,
          "58": 0.1104665296363975,
          "59": 0.053361092195557375,
          "60": 0.12465909257659143,
          "61": -0.06544162895788073,
          "62": -0.15290223430255837,
          "63": -0.10006222347526346
        }
      },
      "35": {
        "bias": 0.31546788345686766,
        "weights": {
          "0": -0.0556204396556329,
          "1": -0.059553676197154404,
          "2": -0.1293676312425508,
          "3": -0.22795769930019172,
          "4": -0.008929579585542505,
          "5": -0.06344818752017778,
          "6": -0.04163534838258985,
          "7": -0.2033995860631068,
          "8": 0.008393462548583775,
          "9": -0.22484232083257494,
          "10": -0.12153280589333346,
          "11": -0.29724347406659857,
          "12": 0.04922853453659981,
          "13": -0.09334140951230267,
          "14": -0.21709480903249181,
          "15": -0.2445378016777588,
          "16": -0.1575113177989434,
          "17": -0.25388056615981325,
          "18": -0.2781735689192057,
          "19": -0.19013902607364977,
          "20": -0.04073309936691496,
          "21": 0.005855802732705323,
          "22": -0.18065827764486722,
          "23": 0.04053174071894529,
          "24": -0.23191143660183533,
          "25": -0.13406909397548314,
          "26": -0.12946853999463775,
          "27": -0.0004681799599250773,
          "28": 0.08198590430463575,
          "29": -0.17508686756017194,
          "30": -0.05217706543876104,
          "31": -0.09012381883214156,
          "32": 0.02253800272391399,
          "33": -0.0028792048943088416,
          "34": -0.015102152145421164,
          "35": -0.018547048283800847,
          "36": -0.049661858307500535,
          "37": -0.050963816225279075,
          "38": -0.16074597089576895,
          "39": 0.1250539631352601,
          "40": -0.19429904132806722,
          "41": 0.062436396239962874,
          "42": 0.1142339473867598,
          "43": 0.10608148957314555,
          "44": -0.1850268424096601,
          "45": -0.0029186975372053245,
          "46": 0.17634170682818323,
          "47": -0.19470821340830083,
          "48": 0.18878792654116677,
          "49": 0.014049094750779157,
          "50": -0.13525125667657112,
          "51": 0.012514507670940821,
          "52": -0.1522745179660053,
          "53": 0.1175533966390436,
          "54": -0.005757577932260886,
          "55": -0.0247361813690271,
          "56": 0.10978807472251782,
          "57": 0.050275579988903404,
          "58": -0.1744544059988657,
          "59": -0.07922344153988238,
          "60": 0.05976340356570269,
          "61": -0.08423292951039162,
          "62": -0.01701018458415489,
          "63": 0.13128674434252616
        }
      },
      "36": {
        "bias": 0.15056196387705031,
        "weights": {
          "0": 0.16657302987264228,
          "1": -0.1564685301120923,
          "2": -0.2182114719703618,
          "3": 0.1376688737685741,
          "4": -0.04163583833548728,
          "5": 0.16785780616328827,
          "6": -0.18091810985240048,
          "7": -0.06688742065529962,
          "8": -0.10000395749501174,
          "9": 0.06597906537194108,
          "10": -0.08574422774027976,
          "11": -0.12828641311109307,
          "12": -0.19392932155435305,
          "13": -0.1633761949710582,
          "14": 0.15689204008752522,
          "15": -0.1845181384782873,
          "16": 0.15525262757451372,
          "17": 0.03850250743743585,
          "18": -0.2150962084887429,
          "19": -0.14746741478934383,
          "20": -0.17834237925881358,
          "21": 0.11748029197391066,
          "22": -0.09373153660826009,
          "23": 0.07115163406171995,
          "24": 0.13039686818713736,
          "25": -0.09595543663322872,
          "26": 0.054986835709389774,
          "27": -0.14305810187789986,
          "28": -0.16006328168322984,
          "29": -0.0991633047635828,
          "30": 0.10059262806881833,
          "31": 0.018672161707664534,
          "32": -0.1699120910936724,
          "33": -0.039547896173434724,
          "34": -0.04590821900352686,
          "35": -0.11600077793849525,
          "36": -0.04863910435133548,
          "37": -0.05834558357828374,
          "38": 0.03893107118035991,
          "39": 0.14407512752391013,
          "40": -0.20172680050269468,
          "41": 0.030458411104946865,
          "42": -0.13729840541793173,
          "43": -0.17105440828220456,
          "44": -0.17107331290867706,
          "45": -0.010140426430034686,
          "46": -0.06601156313538958,
          "47": 0.05255727503419113,
          "48": 0.104394990084518,
          "49": 0.10744738571886762,
          "50": 0.13336520912172276,
          "51": 0.08278349315572436,
          "52": -0.17965085706698244,
          "53": -0.15403302477405262,
          "54": -0.015782675224392178,
          "55": -0.20900617382919812,
          "56": 0.1441970395189934,
          "57": 0.009139108306007903,
          "58": -0.11753631497289227,
          "59": -0.041867062119402526,
          "60": 0.07845436486788372,
          "61": 0.07086832595119756,
          "62": 0.0810940119385647,
          "63": -0.18829919954370902
        }
      },
      "37": {
        "bias": 0.0755068311547892,
        "weights": {
          "0": -0.08329321054232783,
          "1": -0.14519410128557955,
          "2": 0.17069334728534885,
          "3": 0.14728111529068738,
          "4": -0.012920129767296121,
          "5": -0.16955867345804873,
          "6": 0.007213435105147473,
          "7": -0.026314652910603597,
          "8": 0.0031299230300870957,
          "9": 0.039207479653521,
          "10": 0.1606463263893317,
          "11": -0.08696464413325983,
          "12": 0.15252599810288137,
          "13": -0.17479544689123447,
          "14": 0.061306034546726416,
          "15": -0.024337208420155743,
          "16": -0.17954754840647183,
          "17": -0.049210213232358996,
          "18": 0.041915941784785034,
          "19": 0.1540622074740614,
          "20": -0.02578310365169523,
          "21": 0.1527393454741144,
          "22": 0.07440711888870827,
          "23": 0.05290074014981322,
          "24": -0.017013796539117707,
          "25": -0.014364029681364047,
          "26": 0.06984463748752512,
          "27": 0.08895735670179775,
          "28": -0.1827884019443045,
          "29": -0.03887944248585057,
          "30": -0.16943135570102033,
          "31": -0.10616434218801825,
          "32": 0.16074237691827487,
          "33": 0.16530050540902927,
          "34": -0.005008683604057754,
          "35": 0.11397483336347229,
          "36": 0.16628978584963572,
          "37": 0.04393675465593397,
          "38": -0.024615320088178076,
          "39": 0.02567061902338122,
          "40": -0.007648150795640976,
          "41": 0.02296189949771414,
          "42": 0.162844984248613,
          "43": -0.12493691713909894,
          "44": -0.009956227656618702,
          "45": -0.05413632316481066,
          "46": -0.12381783878659686,
          "47": 0.01140482785429831,
          "48": -0.17033345829013546,
          "49": -0.06094967604353934,
          "50": -0.1740053367266139,
          "51": 0.13581946941030051,
          "52": -0.1494818602353616,
          "53": 0.10759933581060084,
          "54": -0.18022936309719909,
          "55": -0.1465194260906342,
          "56": -0.010538941162473532,
          "57": -0.10622062591515194,
          "58": -0.03790811520749039,
          "59": 0.0922547250547625,
          "60": 0.09661045674756703,
          "61": 0.20340067182560048,
          "62": -0.16702976095747812,
          "63": -0.040991554325728465
        }
      },
      "38": {
        "bias": 0.07259027574208124,
        "weights": {
          "0": -0.11481449028789117,
          "1": -0.23031691678599517,
          "2": -0.13778480715965877,
          "3": 0.10776355533239988,
          "4": 0.0227297748934516,
          "5": 0.008959322505852359,
          "6": -0.05227023990901252,
          "7": 0.06481544749025174,
          "8": -0.23236650248569063,
          "9": 0.012020846212718763,
          "10": 0.12974944083885848,
          "11": -0.022379554409966515,
          "12": 0.12739111963332378,
          "13": 0.02800336211954655,
          "14": -0.013992292755231832,
          "15": 0.009755842583917514,
          "16": 0.12099536683756044,
          "17": -0.03475572404531526,
          "18": -0.2071329907240545,
          "19": 0.09310444078353408,
          "20": -0.02365967903520917,
          "21": -0.1821995286931358,
          "22": -0.14095187707138435,
          "23": 0.08792189056827873,
          "24": -0.12076691198862227,
          "25": -0.056404022631907476,
          "26": -0.05964573064457293,
          "27": 0.033833086795218244,
          "28": 0.05930717804306898,
          "29": 0.1277594850029472,
          "30": -0.125290009051315,
          "31": -0.14201181824764836,
          "32": 0.12381078117196485,
          "33": -0.0395097360860769,
          "34": -0.00396588579159141,
          "35": -0.001976852536989996,
          "36": 0.14227176510695405,
          "37": -0.16554561162539563,
          "38": -0.023025408485955336,
          "39": 0.1263086041503326,
          "40": -0.10296533927672503,
          "41": -0.03676930320217215,
          "42": -0.05587353016124175,
          "43": -0.10982470919953315,
          "44": -0.2093439331077413,
          "45": -0.16770197757000327,
          "46": -0.11435532547918867,
          "47": 0.06251596851255169,
          "48": 0.11234022284857732,
          "49": -0.024412663137959745,
          "50": -0.027931423219437403,
          "51": 0.07066366725929804,
          "52": -0.15773443381321592,
          "53": -0.11450968331043462,
          "54": 0.004901330859260836,
          "55": 0.15190471711930756,
          "56": -0.13232709404435497,
          "57": -0.1932873348533247,
          "58": 0.14648121057946395,
          "59": -0.1622745364498832,
          "60": -0.08385577416510674,
          "61": -0.05338279418166246,
          "62": 0.11931314096020222,
          "63": -0.09089039474573996
        }
      },
      "39": {
        "bias": 0.14360822763268688,
        "weights": {
          "0": 0.28142562239446967,
          "1": -0.3449642188956086,
          "2": -0.023433116758856606,
          "3": -0.0878021899964241,
          "4": 0.04297356150878744,
          "5": 0.08413708316316044,
          "6": -0.2696870536782078,
          "7": -0.2094941051799302,
          "8": 0.04178071361974395,
          "9": -0.027154378980907817,
          "10": -0.1334245233210472,
          "11": -0.2156556511246823,
          "12": 0.1334414912206165,
          "13": -0.2693658795958638,
          "14": -0.24377688193138422,
          "15": -0.13771268184092292,
          "16": -0.16552864945347026,
          "17": -0.2661625558030539,
          "18": -0.26779083921227304,
          "19": -0.01933323407262297,
          "20": 0.033878534172545154,
          "21": -0.2652366140378654,
          "22": 0.10758522336122331,
          "23": -0.16386131408071533,
          "24": 0.13986172760862203,
          "25": 0.14355898688069116,
          "26": -0.1837665835776396,
          "27": 0.04071071659598789,
          "28": -0.087914084457754,
          "29": -0.0654803099834632,
          "30": 0.1294722928520799,
          "31": 0.12301140025212731,
          "32": -0.03220976236869265,
          "33": -0.21726668344013755,
          "34": 0.022300030921432366,
          "35": -0.2638314335901354,
          "36": 0.2331902706695935,
          "37": -0.22428247494221557,
          "38": -0.13300161548763056,
          "39": -0.17541591846581842,
          "40": 0.165203691241714,
          "41": 0.0864486932094938,
          "42": -0.11011180706389087,
          "43": -0.06333999340370415,
          "44": -0.06905971587370709,
          "45": -0.023888630489046894,
          "46": 0.13333168532659478,
          "47": -0.12158609537365984,
          "48": -0.1888809447992819,
          "49": 0.03570169208875946,
          "50": 0.12883822599226555,
          "51": -0.23722376398833267,
          "52": 0.16591930097020072,
          "53": 0.07530554624961601,
          "54": -0.0787767838972338,
