{
  "layers": [
    {
      "0": {},
      "1": {},
      "2": {},
      "3": {},
      "4": {},
      "5": {},
      "6": {},
      "7": {},
      "8": {},
      "9": {},
      "10": {},
      "11": {},
      "12": {},
      "13": {},
      "14": {},
      "15": {},
      "16": {},
      "17": {},
      "18": {},
      "19": {},
      "20": {},
      "21": {},
      "22": {},
      "23": {},
      "24": {},
      "25": {},
      "26": {},
      "27": {},
      "28": {},
      "29": {},
      "30": {},
      "31": {},
      "32": {},
      "33": {},
      "34": {},
      "35": {},
      "36": {},
      "37": {},
      "38": {},
      "39": {},
      "40": {},
      "41": {},
      "42": {},
      "43": {},
      "44": {},
      "45": {},
      "46": {},
      "47": {},
      "48": {},
      "49": {},
      "50": {},
      "51": {},
      "52": {},
      "53": {},
      "54": {},
      "55": {},
      "56": {},
      "57": {},
      "58": {},
      "59": {},
      "60": {},
      "61": {},
      "62": {},
      "63": {}
    },
    {
      "0": {
        "bias": 0.17611550836027395,
        "weights": {
          "0": 0.6236453062817816,
          "1": -0.03347404509147037,
          "2": -0.053197639194768984,
          "3": -0.16224971876937938,
          "4": -0.05162169299809652,
          "5": -0.25754835315493585,
          "6": -0.15083426413023474,
          "7": -0.018797814070161224,
          "8": 0.07139408136429712,
          "9": -0.25333256918320757,
          "10": -0.03173052255228848,
          "11": -0.14124768257595754,
          "12": -0.09879104421618674,
          "13": -0.16060532474567651,
          "14": 0.11379644897596868,
          "15": -0.05643292439857001,
          "16": -0.14293575699558853,
          "17": -0.22560644523881185,
          "18": -0.28654147830031546,
          "19": -0.23582584766986814,
          "20": -0.06845263574079476,
          "21": -0.20675520977498377,
          "22": -0.001432586464295807,
          "23": 0.0886431340747586,
          "24": -0.22918513534199839,
          "25": -0.029069474049884084,
          "26": -0.02291413490655046,
          "27": -0.1669361097741926,
          "28": -0.03906461765503082,
          "29": -0.1295187511367824,
          "30": 0.09386079981745671,
          "31": -0.1438278744391188,
          "32": -0.04512002967323532,
          "33": -0.0664602609152133,
          "34": -0.03605050659083451,
          "35": 0.09708904844904165,
          "36": 0.2111932492652715,
          "37": -0.23035562936973572,
          "38": -0.06610775371725468,
          "39": -0.13909324075607102,
          "40": -0.0840929448248142,
          "41": 0.12171262747119185,
          "42": -0.16554058796715274,
          "43": -0.03136463385361861,
          "44": 0.05875400376076052,
          "45": -0.11528333037970402,
          "46": 0.049593628993453376,
          "47": -0.06562476841247143,
          "48": 0.11394362504712265,
          "49": 0.09790131278664277,
          "50": -0.012198633555229942,
          "51": -0.14747645395558545,
          "52": 0.30115375883635437,
          "53": -0.17124938067556927,
          "54": 0.13724763824530353,
          "55": 0.026327928293421676,
          "56": 0.00785811169547973,
          "57": -0.02257021521739494,
          "58": -0.01643104734411827,
          "59": -0.10955491560196635,
          "60": 0.17621919559197227,
          "61": 0.06944872412837443,
          "62": 0.065517166903814,
          "63": 0.11821392655821862
        }
      },
      "1": {
        "bias": -0.009908463645287644,
        "weights": {
          "0": 0.08127773998688008,
          "1": -0.09873966398519371,
          "2": 0.01622655507509427,
          "3": 0.017173510044304514,
          "4": 0.024795687475905884,
          "5": -0.0920667585777288,
          "6": -0.02671487429987781,
          "7": 0.16007068724275092,
          "8": 0.06578982798962522,
          "9": 0.13642320636098218,
          "10": 0.11772034350114585,
          "11": -0.015610397800647196,
          "12": -0.08540937197431152,
          "13": -0.09940792327954512,
          "14": -0.20310454734282263,
          "15": 0.04772916045186712,
          "16": -0.08723898519412143,
          "17": -0.08689792124152976,
          "18": -0.03173574711868499,
          "19": -0.17406694126548808,
          "20": -0.10724341786104731,
          "21": -0.08235408238368613,
          "22": -0.09527980107958364,
          "23": 0.04503546261370951,
          "24": -0.03043323825718648,
          "25": -0.20622382502627312,
          "26": 0.0370282654174669,
          "27": -0.19321042951430134,
          "28": 0.11574173975844888,
          "29": -0.19242179015193697,
          "30": 0.0010580247018720456,
          "31": -0.060937438612058865,
          "32": 0.07168165313871386,
          "33": -0.06135272957833878,
          "34": -0.02526440410867736,
          "35": -0.0984427327784364,
          "36": -0.04355200740204155,
          "37": 0.07138049729915519,
          "38": 0.0197347287688096,
          "39": -0.17122242822315,
          "40": -0.029878773543597324,
          "41": 0.0475764316537415,
          "42": 0.09590006216688877,
          "43": -0.04038161371985046,
          "44": 0.1631294412191012,
          "45": 0.029699360243401498,
          "46": 0.0746750052673866,
          "47": -0.0330396400481732,
          "48": -0.027988114662302496,
          "49": -0.021195741036577745,
          "50": -0.1730222528404964,
          "51": -0.11908229219563449,
          "52": -0.1414087622207421,
          "53": 0.11767772530455176,
          "54": -0.17999094993886736,
          "55": 0.09479403166825145,
          "56": -0.08741842996972332,
          "57": 0.09649766066206727,
          "58": 0.040848496922508803,
          "59": 0.08406911793728618,
          "60": 0.05099776779470527,
          "61": 0.13526824700490656,
          "62": 0.0024735839861729156,
          "63": -0.037796575679759394
        }
      },
      "2": {
        "bias": -0.006143119849851625,
        "weights": {
          "0": -0.3865343936875917,
          "1": 0.26111512155224575,
          "2": 0.1558713033087703,
          "3": 0.24249833891924727,
          "4": -0.01231295632604216,
          "5": 0.09959807286342835,
          "6": -0.1444692377485981,
          "7": 0.016864051665536534,
          "8": -0.027906521518369785,
          "9": -0.10539856557790805,
          "10": -0.0669497497401761,
          "11": 0.0937272486009011,
          "12": -0.07344998657262493,
          "13": 0.002097428923413121,
          "14": -0.010644910695766669,
          "15": -0.09495224118715205,
          "16": -0.03707186211406456,
          "17": 0.09208207501933831,
          "18": 0.2236033467179524,
          "19": -0.09508289943732022,
          "20": 0.01604027078654451,
          "21": 0.16755769874836698,
          "22": 0.10376622534846926,
          "23": 0.21661517674548686,
          "24": 0.18119763900797364,
          "25": -0.11093202652041403,
          "26": -0.005908291442443487,
          "27": 0.1986421794289337,
          "28": 0.034682343549730134,
          "29": 0.0033733489458734212,
          "30": 0.08272147515835043,
          "31": 0.2088878602349681,
          "32": 0.16905463548399302,
          "33": 0.20082637137886553,
          "34": 0.19611879325003254,
          "35": -0.06061065375559191,
          "36": 0.11079236281891823,
          "37": -0.04947107859752529,
          "38": -0.12837674187538542,
          "39": -0.0803642713859879,
          "40": 0.20058449157956718,
          "41": 0.08712029139014439,
          "42": -0.12530293686095448,
          "43": -0.07567409933966913,
          "44": 0.1609576250791042,
          "45": 0.2403995538347807,
          "46": -0.11101363913310848,
          "47": -0.00005516964990368229,
          "48": 0.057672559908413766,
          "49": -0.06300353266469812,
          "50": 0.14347416524482715,
          "51": 0.044823345405481434,
          "52": -0.1504717120495846,
          "53": -0.17167088503809202,
          "54": -0.0412114737929053,
          "55": -0.031241170203470364,
          "56": 0.014668679938298332,
          "57": -0.08701808480093569,
          "58": -0.14702922124374485,
          "59": -0.1167500465239462,
          "60": -0.14194562683805467,
          "61": 0.16823785390209892,
          "62": -0.15036343471771613,
          "63": 0.2054377738756577
        }
      },
      "3": {
        "bias": -0.2129764703873271,
        "weights": {
          "0": -0.3903455859107789,
          "1": 0.009135365011449723,
          "2": 0.23089680103074076,
          "3": -0.09878222270305347,
          "4": 0.18853383862801903,
          "5": -0.035293525322882505,
          "6": 0.14519769701860571,
          "7": 0.089950575315041,
          "8": -0.1625251505226931,
          "9": 0.0463260900031413,
          "10": -0.05533763303906004,
          "11": 0.021638310509890325,
          "12": 0.10980921622287794,
          "13": -0.05705378727682531,
          "14": 0.24624362138650316,
          "15": 0.19870636903304312,
          "16": -0.1174196401861795,
          "17": 0.20755834833290102,
          "18": 0.1757640623196214,
          "19": 0.2118124580808647,
          "20": 0.050428733636018346,
          "21": 0.22695584742929292,
          "22": 0.046972938713863134,
          "23": -0.06782588190418315,
          "24": 0.021373878008241472,
          "25": -0.06672528283861402,
          "26": 0.15495926963388162,
          "27": 0.14083056564441632,
          "28": 0.14770598131249943,
          "29": 0.22136015686315752,
          "30": 0.033094672918643535,
          "31": -0.118962648899315,
          "32": 0.07916245907481889,
          "33": -0.12211108980433709,
          "34": 0.0679525997841422,
          "35": 0.07962265721439635,
          "36": 0.15133006314173258,
          "37": 0.1712301633128392,
          "38": 0.18231621548769142,
          "39": 0.055198277001843876,
          "40": 0.13156333274155507,
          "41": 0.18243924298363157,
          "42": 0.012666217243384782,
          "43": 0.08673464160402498,
          "44": -0.17010015914825174,
          "45": 0.14278761112973984,
          "46": -0.20023889533941744,
          "47": -0.003930908749932261,
          "48": 0.06864625899423406,
          "49": 0.19074131675467537,
          "50": -0.029533359560733226,
          "51": 0.155180616962509,
          "52": 0.00521629125233488,
          "53": 0.001043534416292047,
          "54": 0.046305986705009544,
          "55": -0.14510413688864734,
          "56": 0.17959165369790536,
          "57": -0.1705537859744336,
          "58": -0.048853742002727185,
          "59": -0.15686602465825508,
          "60": -0.1923192558301018,
          "61": -0.08024269046817725,
          "62": -0.03858634033719954,
          "63": 0.13758294610521093
        }
      },
      "4": {
        "bias": 0.07316080493171084,
        "weights": {
          "0": 0.3754971824033001,
          "1": 0.04895066436164828,
          "2": -0.266264377921722,
          "3": 0.007530645363343827,
          "4": -0.08647227982767212,
          "5": -0.03136128560893278,
          "6": -0.21157456548953812,
          "7": 0.029416188875050042,
          "8": 0.04077063111732534,
          "9": 0.0492392685396658,
          "10": 0.06209365246064042,
          "11": -0.12259800961723842,
          "12": -0.11647070567971696,
          "13": 0.046841018592277385,
          "14": -0.24265755643460257,
          "15": 0.05087370486522953,
          "16": 0.042767467422707275,
          "17": -0.25806027236323525,
          "18": -0.2114891632368943,
          "19": 0.12699645193831416,
          "20": 0.10039623417661549,
          "21": -0.23864829667964232,
          "22": 0.012652139046459343,
          "23": -0.10080810198566417,
          "24": -0.004569190308017829,
          "25": 0.08910274367184143,
          "26": -0.13037803111978793,
          "27": 0.09217474447101667,
          "28": 0.12849930699989492,
          "29": -0.22767171567893826,
          "30": 0.028547432500071076,
          "31": -0.1095257816723519,
          "32": 0.0817314334113504,
          "33": 0.1062855588122327,
          "34": 0.00288897091241511,
          "35": -0.21936183786942276,
          "36": 0.08748696389962166,
          "37": -0.03945511047359526,
          "38": -0.04177390742274471,
          "39": -0.10200448604752847,
          "40": 0.04064236268732199,
          "41": -0.049039231683151656,
          "42": -0.2137721340779823,
          "43": -0.06898743537524926,
          "44": 0.07487602778979381,
          "45": -0.0025111183935000825,
          "46": 0.024545974402825427,
          "47": -0.17259751424230546,
          "48": -0.14856061113186353,
          "49": 0.006748017553699316,
          "50": -0.08156070547156972,
          "51": 0.1647225820232595,
          "52": -0.003950752692343265,
          "53": -0.05948890622652897,
          "54": 0.09397091265451075,
          "55": -0.018103465659548797,
          "56": 0.10031608111345812,
          "57": -0.17163937536830973,
          "58": -0.05329620245482389,
          "59": -0.05682407859138399,
          "60": -0.1553322116475649,
          "61": -0.13022247681012297,
          "62": 0.0598265090028694,
          "63": -0.0644669100526995
        }
      },
      "5": {
        "bias": -0.12693874698371635,
        "weights": {
          "0": 0.05829236205215906,
          "1": 0.03825918831084655,
          "2": -0.23431886398765028,
          "3": 0.131681552970689,
          "4": -0.031878895138356136,
          "5": -0.17460763966345616,
          "6": -0.11115394784954073,
          "7": 0.12473563354479722,
          "8": 0.05532194323283091,
          "9": -0.07274638677133556,
          "10": 0.08371479889131196,
          "11": 0.028935441239870494,
          "12": -0.1366989700066396,
          "13": -0.14018413650311995,
          "14": 0.03885706160896741,
          "15": -0.12173688054226466,
          "16": -0.0670770043799574,
          "17": -0.0744754578687138,
          "18": -0.010567839704103658,
          "19": 0.1487755774735502,
          "20": 0.08015512788316694,
          "21": -0.1397334521392903,
          "22": -0.10987797983332823,
          "23": -0.18678296424535548,
          "24": 0.10442386243309176,
          "25": -0.12580090619139495,
          "26": -0.046441313047560516,
          "27": -0.21228833929482974,
          "28": -0.12398462664947311,
          "29": -0.2281862758099542,
          "30": -0.21212438810599857,
          "31": -0.17153722504721428,
          "32": -0.046182220905393694,
          "33": -0.08721943336350188,
          "34": 0.1682197875111015,
          "35": -0.20419646330664915,
          "36": -0.1269585545126088,
          "37": 0.008278721225049841,
          "38": 0.06811931029488985,
          "39": 0.013365442130640573,
          "40": 0.018114658697707127,
          "41": 0.0958875361055176,
          "42": -0.16546718546052344,
          "43": -0.10813915101796442,
          "44": 0.10292440363409369,
          "45": -0.10207031617137212,
          "46": -0.15374304073957457,
          "47": -0.10233369655695385,
          "48": -0.13881801444975947,
          "49": 0.09990841664034318,
          "50": -0.0625571636742717,
          "51": 0.0980161787941763,
          "52": -0.08651270813579598,
          "53": -0.11866992079092019,
          "54": -0.137394207288964,
          "55": -0.1697415249537598,
          "56": 0.07220584451306362,
          "57": 0.13504229830957745,
          "58": 0.13443902249012885,
          "59": -0.19752324554948922,
          "60": -0.1303189771825344,
          "61": -0.01563652557080546,
          "62": 0.1256619660956196,
          "63": 0.1780708370392218
        }
      },
      "6": {
        "bias": 0.09099347647638019,
        "weights": {
          "0": 0.09140115584074827,
          "1": -0.1865394035488082,
          "2": 0.0069852331591701055,
          "3": -0.008419161997172232,
          "4": 0.07084802141479521,
          "5": -0.1671908849088553,
          "6": -0.037738438440877736,
          "7": -0.08604076883319052,
          "8": 0.07315886040567408,
          "9": -0.02810224584070085,
          "10": -0.13019273364664638,
          "11": -0.14661785643378528,
          "12": -0.012865829026768721,
          "13": 0.174427686933839,
          "14": -0.1493283561790385,
          "15": -0.027673822759141643,
          "16": -0.12154167317001804,
          "17": -0.012097628396402216,
          "18": 0.08066921654257862,
          "19": -0.0002488084084402588,
          "20": 0.03741767246162337,
          "21": 0.07484405359686874,
          "22": 0.16164013841139513,
          "23": -0.13536180951928745,
          "24": 0.09138211536890106,
          "25": 0.13984619171190013,
          "26": 0.1472215809846081,
          "27": 0.01900250372227551,
          "28": 0.049854206808832346,
          "29": 0.09378379156279504,
          "30": -0.011625132405097357,
          "31": 0.1954735584909683,
          "32": -0.1519078601687213,
          "33": 0.1469373514866706,
          "34": 0.08233473017701341,
          "35": 0.18566623958105063,
          "36": 0.034522237156753545,
          "37": -0.11681232862336732,
          "38": 0.1318037740471021,
          "39": 0.11076937375899235,
          "40": 0.197218030193788,
          "41": -0.060598735990683245,
          "42": -0.06556025840523787,
          "43": -0.13885340866766913,
          "44": 0.14016024071190267,
          "45": 0.09993154977012818,
          "46": -0.10872143130396267,
          "47": 0.06206259375240719,
          "48": -0.18994912538066303,
          "49": 0.14161614624417523,
          "50": 0.13184253915736494,
          "51": 0.03606738402179747,
          "52": -0.14886553482334014,
          "53": -0.15874331050158658,
          "54": -0.09708969742138542,
          "55": 0.013828358325988947,
          "56": -0.14645024843635768,
          "57": -0.1893561464666347,
          "58": -0.008936582470847708,
          "59": 0.02986442609655987,
          "60": -0.004497617472163143,
          "61": -0.0651853654246171,
          "62": -0.08813862419855323,
          "63": -0.06257225952119569
        }
      },
      "7": {
        "bias": -0.23517342591610402,
        "weights": {
          "0": -0.3588886260963811,
          "1": 0.12642641348114142,
          "2": 0.2312568515394158,
          "3": 0.08309750605705342,
          "4": 0.004461381856180675,
          "5": -0.08856129799361158,
          "6": -0.08187602359394017,
          "7": -0.029933686124211482,
          "8": 0.18916873440318405,
          "9": 0.23719497658045202,
          "10": 0.10257113337325806,
          "11": 0.21113585036062169,
          "12": 0.06911206887878409,
          "13": -0.07321535077118127,
          "14": -0.1073862107805147,
          "15": 0.20796063912509374,
          "16": 0.16722929149771892,
          "17": -0.001953384618680529,
          "18": 0.04029360094568847,
          "19": 0.10323678812241875,
          "20": -0.11031775986219564,
          "21": -0.07015805996444077,
          "22": -0.14937365280509504,
          "23": 0.1467431785520725,
          "24": 0.17865564306198944,
          "25": 0.01462895858750899,
          "26": 0.22977185285501167,
          "27": -0.015315940186232013,
          "28": 0.07493775888098311,
          "29": 0.135832138532099,
          "30": 0.08780554550915774,
          "31": 0.21614624698779092,
          "32": -0.026775592770996778,
          "33": 0.034575684958493724,
          "34": 0.020163952136305688,
          "35": 0.19271375282577075,
          "36": 0.06465195093163476,
          "37": -0.034348904751615,
          "38": -0.003274173143396718,
          "39": 0.08944401053296677,
          "40": -0.027254480233339325,
          "41": 0.07970815046772117,
          "42": -0.03927467774222605,
          "43": -0.03855826715703823,
          "44": -0.06322550955387227,
          "45": -0.014792326852790293,
          "46": 0.08768406173478985,
          "47": 0.10780022251009866,
          "48": -0.11771414208615964,
          "49": 0.05989818551864199,
          "50": -0.12426990288148303,
          "51": 0.11570574649070044,
          "52": -0.20979248286325872,
          "53": 0.1763866038497,
          "54": 0.06877025875358167,
          "55": -0.039511948358509366,
          "56": 0.12079152050528728,
          "57": -0.05392449789843087,
          "58": 0.13699787230256422,
          "59": 0.14319434133463385,
          "60": -0.02489688530078942,
          "61": 0.09745105095777376,
          "62": -0.16897226858671244,
          "63": 0.11452874828042073
        }
      },
      "8": {
        "bias": 0.021224271309828496,
        "weights": {
          "0": -0.4019276469374284,
          "1": 0.1956324805670771,
          "2": 0.2655785068610963,
          "3": 0.23986289912698672,
          "4": 0.1471676762921698,
          "5": 0.04861202236868632,
          "6": 0.15544767609007532,
          "7": -0.12352897864856449,
          "8": 0.19352680595977728,
          "9": 0.04298993431083781,
          "10": -0.09282978722507719,
          "11": 0.1939854334548077,
          "12": -0.07389821818580675,
          "13": -0.05272201814474061,
          "14": 0.16084830954926796,
          "15": -0.023320349950684025,
          "16": 0.1291666378071778,
          "17": 0.19618366031282589,
          "18": -0.05657680612680622,
          "19": 0.2319344892536579,
          "20": -0.1307093852136136,
          "21": 0.056679813239301116,
          "22": 0.11466041044003926,
          "23": 0.04686077734801537,
          "24": -0.005663777431691151,
          "25": 0.01726920845948244,
          "26": 0.21072193712082096,
          "27": -0.11646822887348185,
          "28": 0.15108653876157171,
          "29": 0.015472077002975504,
          "30": -0.04624961982411173,
          "31": 0.08281737781756707,
          "32": -0.0922777905917363,
          "33": 0.22052595636682648,
          "34": 0.057250973348789015,
          "35": 0.22722492940056427,
          "36": 0.12490855411031375,
          "37": 0.02409292532565116,
          "38": 0.11217469338065929,
          "39": -0.08360967256852213,
          "40": 0.04647991777423139,
          "41": -0.0429131496911317,
          "42": 0.20964553276035836,
          "43": 0.025413064845956568,
          "44": -0.06299256994522419,
          "45": -0.06153316404973315,
          "46": -0.10970313308251836,
          "47": 0.04185293708972544,
          "48": -0.1680576357345909,
          "49": 0.13628620263126603,
          "50": -0.14640889989278214,
          "51": 0.12408373306529756,
          "52": -0.19917027132658202,
          "53": -0.03206098209276386,
          "54": -0.0726998163252304,
          "55": -0.07094701090253043,
          "56": 0.05108402375215316,
          "57": 0.14131797838527488,
          "58": -0.12751014360455884,
          "59": 0.10623255849861808,
          "60": -0.1377484716745454,
          "61": -0.17245384636805994,
          "62": 0.14050848610623715,
          "63": 0.10418381109990343
        }
      },
      "9": {
        "bias": -0.002131518048715135,
        "weights": {
          "0": 0.23998152635662712,
          "1": -0.07916642659339589,
          "2": -0.260826695082277,
          "3": -0.1530205780798115,
          "4": -0.2154556513207959,
          "5": -0.08741945123612152,
          "6": -0.14675242363192706,
          "7": -0.03391492443152137,
          "8": 0.09152641402269052,
          "9": -0.260236680593469,
          "10": 0.011193286047829206,
          "11": 0.13248699487016313,
          "12": 0.1829978245263462,
          "13": -0.11980855167335869,
          "14": -0.17966609570059994,
          "15": -0.010322866400759698,
          "16": 0.019266363102222912,
          "17": -0.08186260332656334,
          "18": -0.26400732526012066,
          "19": 0.061114643905913056,
          "20": -0.1944953391338307,
          "21": -0.24837662666272353,
          "22": 0.14178102056921163,
          "23": -0.12981791321222882,
          "24": 0.1113129253128032,
          "25": -0.0014443745422175168,
          "26": 0.13698997681706243,
          "27": -0.07830138022137718,
          "28": 0.031515884198425485,
          "29": -0.21952965238537436,
          "30": -0.2038559588911152,
          "31": -0.23724389840202043,
          "32": -0.06886297466831494,
          "33": -0.13582332380406484,
          "34": 0.08868992495309837,
          "35": -0.07043890051641398,
          "36": -0.05563899983157541,
          "37": 0.03329825648728268,
          "38": 0.12441038600944307,
          "39": -0.0641259638680845,
          "40": -0.13225436410815283,
          "41": -0.10093066776533782,
          "42": -0.045003641831698936,
          "43": -0.06256196566514567,
          "44": 0.06633834244031876,
          "45": 0.003432070641313533,
          "46": 0.16209354259066197,
          "47": 0.09846038254159933,
          "48": 0.14645518056347953,
          "49": 0.14457563036234372,
          "50": -0.020684830228906163,
          "51": -0.09301304666613278,
          "52": -0.13028843754229805,
          "53": 0.157081863445682,
          "54": -0.11383004055154497,
          "55": 0.1474916785577298,
          "56": 0.15014977895251683,
          "57": -0.04560979304704334,
          "58": -0.16040960194940515,
          "59": 0.04628835332839649,
          "60": 0.10727208779020714,
          "61": -0.1438240754300442,
          "62": -0.013163573739888176,
          "63": 0.018132448257843794
        }
      },
      "10": {
        "bias": 0.09220430324761128,
        "weights": {
          "0": 0.23906886808850195,
          "1": -0.17612122712550765,
          "2": 0.09034190195981727,
          "3": -0.21556441126709813,
          "4": 0.056357482826249417,
          "5": 0.1212597385350007,
          "6": -0.19508863368574017,
          "7": -0.03739392449014777,
          "8": -0.18742079127224287,
          "9": 0.05839091604039501,
          "10": 0.10692451909040518,
          "11": -0.05815974591547304,
          "12": 0.0725255363178221,
          "13": -0.05607462822336143,
          "14": -0.08069660086562182,
          "15": 0.024157289555135894,
          "16": -0.18887636669887298,
          "17": 0.09684953056004668,
          "18": -0.19692799330615018,
          "19": 0.04337435833728483,
          "20": 0.009025503523598597,
          "21": -0.0671720295028128,
          "22": -0.2089185650355952,
          "23": -0.08312916484570464,
          "24": 0.14405978092942842,
          "25": -0.040752783432389715,
          "26": -0.16582216064764888,
          "27": -0.08897407670263931,
          "28": -0.14900661377133137,
          "29": 0.10042787838953542,
          "30": -0.19660846825975214,
          "31": 0.07961967578541167,
          "32": 0.12508805866201753,
          "33": -0.2254790046090979,
          "34": -0.18049973556204302,
          "35": 0.03103107309708809,
          "36": -0.03332860880513495,
          "37": 0.07550095680029684,
          "38": -0.060960955037381574,
          "39": 0.10457502900949486,
          "40": -0.021644818671661587,
          "41": 0.0015028634014228274,
          "42": -0.03171416419792107,
          "43": -0.17407123495884763,
          "44": 0.13299998131514568,
          "45": -0.11213971353484795,
          "46": 0.12912506813693916,
          "47": -0.08136538129722914,
          "48": 0.1156744607190899,
          "49": -0.04663630172602328,
          "50": -0.1853904696453417,
          "51": -0.14796513556013854,
          "52": -0.16456408030027964,
          "53": -0.11939948878847484,
          "54": 0.033100934813254795,
          "55": -0.049179316100359256,
          "56": -0.025493822134914797,
          "57": 0.1914097588958089,
          "58": 0.021456081348449466,
          "59": 0.1506634887916283,
          "60": -0.010826133223251417,
          "61": 0.11378788690023905,
          "62": -0.11625645823449683,
          "63": 0.06228871686722231
        }
      },
      "11": {
        "bias": 0.15711542174311666,
        "weights": {
          "0": 0.30829550505959064,
          "1": -0.2620534335154958,
          "2": 0.11191168261517154,
          "3": -0.18675456369982105,
          "4": -0.12299157949138952,
          "5": -0.04925414504754825,
          "6": 0.004847116011933854,
          "7": -0.05206138329809437,
          "8": 0.13647292760730542,
          "9": 0.02410489099862172,
          "10": 0.09217106484641645,
          "11": -0.0367399319408546,
          "12": -0.15365912524954056,
          "13": -0.15343179226040854,
          "14": -0.020683030843752732,
          "15": -0.20290742377135482,
          "16": 0.02961243793052353,
          "17": 0.013190901932185617,
          "18": -0.024536363394635316,
          "19": 0.14344731139000233,
          "20": -0.10456015189019727,
          "21": 0.06449623834514906,
          "22": -0.029930218103129805,
          "23": 0.14060420089858133,
          "24": -0.12651918911096058,
          "25": -0.13801118290670877,
          "26": -0.15626380685683888,
          "27": -0.11094850341564394,
          "28": -0.03058574373027735,
          "29": -0.19933083644345656,
          "30": -0.10650959820637637,
          "31": 0.04190857772653067,
          "32": -0.08779396628398528,
          "33": -0.17747433002615842,
          "34": -0.14032788663897733,
          "35": -0.05047596902302954,
          "36": -0.08849939230340748,
          "37": -0.20230599376332967,
          "38": -0.1741787970038698,
          "39": 0.08539992577715216,
          "40": -0.11231194565722757,
          "41": -0.18989124944818073,
          "42": 0.009411833611080155,
          "43": -0.199026586036996,
          "44": -0.029640483823528924,
          "45": 0.03246219754462687,
          "46": 0.12531981137890458,
          "47": 0.021441552880290923,
          "48": -0.12236068930796858,
          "49": -0.10896482076254757,
          "50": -0.08616329449092776,
          "51": -0.15441740834940618,
          "52": -0.013289225344012263,
          "53": -0.03913504295101858,
          "54": 0.14591997887397196,
          "55": -0.20592845038121693,
          "56": 0.06134253116308685,
          "57": -0.1183983008894372,
          "58": 0.19471514730575173,
          "59": 0.019772786554429725,
          "60": -0.17113870279297483,
          "61": 0.08748741791593406,
          "62": 0.04301186266584371,
          "63": -0.04458384857887153
        }
      },
      "12": {
        "bias": -0.16989868274268233,
        "weights": {
          "0": -0.13132364850856232,
          "1": -0.20457299357907635,
          "2": 0.12746240727066746,
          "3": 0.01774544024081084,
          "4": 0.14036027838668125,
          "5": -0.025645076258457793,
          "6": 0.12988326015449975,
          "7": -0.20624069471760598,
          "8": 0.03840241207651948,
          "9": -0.027504945357598874,
          "10": 0.039993573563222855,
          "11": -0.07801672395424318,
          "12": 0.14592551038582166,
          "13": -0.032380737405899404,
          "14": -0.013466353131553447,
          "15": 0.028685940004224593,
          "16": -0.21762987769597986,
          "17": 0.0793705418051651,
          "18": -0.012450720701413062,
          "19": -0.11063775215745036,
          "20": 0.03999808141848267,
          "21": 0.07887786396826584,
          "22": 0.15349141785921566,
          "23": 0.12781707012350932,
          "24": -0.07885839142832553,
          "25": -0.08365461741858676,
          "26": -0.20491524730727897,
          "27": -0.1072186421028747,
          "28": 0.014339432984485607,
          "29": -0.0005535097251102726,
          "30": -0.04904649653009295,
          "31": -0.1969552912580485,
          "32": 0.09366782656978756,
          "33": -0.1975069367901751,
          "34": 0.02729599716475752,
          "35": -0.17955994884964305,
          "36": 0.1706396278792295,
          "37": 0.06991649581175542,
          "38": -0.19115806775398828,
          "39": -0.059697453214712155,
          "40": 0.03509392017243105,
          "41": -0.08639582611798484,
          "42": 0.023793241568081096,
          "43": -0.09199992381580434,
          "44": 0.10445816811141882,
          "45": 0.02067933672247357,
          "46": -0.01331939877553332,
          "47": -0.11392888867790786,
          "48": -0.169417311240184,
          "49": 0.18085422671128534,
          "50": -0.13022549869524347,
          "51": -0.15958963616867913,
          "52": -0.10626956055515654,
          "53": 0.0011908167407375823,
          "54": -0.010580189017745916,
          "55": 0.08293614393747314,
          "56": -0.1520891851448031,
          "57": -0.13099549444949407,
          "58": 0.00816194409166486,
          "59": 0.03274339846452598,
          "60": 0.16363305192022576,
          "61": -0.1389829669229259,
          "62": -0.11364381010520273,
          "63": -0.10207711789220279
        }
      },
      "13": {
        "bias": 0.09197822463352562,
        "weights": {
          "0": 0.25423034511136366,
          "1": -0.3097214062401026,
          "2": -0.2574876686796636,
          "3": -0.058845238821029607,
          "4": 0.04408035740212076,
          "5": -0.038136623928649444,
          "6": 0.09452659308575781,
          "7": -0.06541933787000805,
          "8": -0.18206099824594427,
          "9": -0.026117742317591876,
          "10": -0.05799009030012755,
          "11": -0.06779395583344827,
          "12": -0.12446485570355618,
          "13": 0.13132778116869606,
          "14": -0.264770467415384,
          "15": -0.021792838816335494,
          "16": 0.019065685240979284,
          "17": -0.20949492533867603,
          "18": 0.012026553953171553,
          "19": -0.1330154072107249,
          "20": 0.07432486451928814,
          "21": -0.14648187019129252,
          "22": -0.243561292381533,
          "23": -0.1773903095544879,
          "24": 0.03451623710518294,
          "25": -0.06256489501269605,
          "26": 0.07456219740936204,
          "27": -0.23181462218136237,
          "28": 0.15188411210455874,
          "29": -0.17382771128157393,
          "30": 0.0515466203080463,
          "31": 0.0030412576422316102,
          "32": -0.1964147433498849,
          "33": 0.08603144980596746,
          "34": -0.12688175145905534,
          "35": -0.14133249659842656,
          "36": -0.021091888502819553,
          "37": -0.06003475582091117,
          "38": -0.09831927774623535,
          "39": -0.16542597540209247,
          "40": -0.16106557104900188,
          "41": -0.0754946089387844,
          "42": -0.2112350453859519,
          "43": -0.17640951587369313,
          "44": 0.10641865538098667,
          "45": -0.05867054206982566,
          "46": 0.08289796507929217,
          "47": -0.023573309995325333,
          "48": 0.08462948215506831,
          "49": 0.04702390729589851,
          "50": 0.0517746968136046,
          "51": 0.1789325388367109,
          "52": 0.26068211652417267,
          "53": 0.04725412564395067,
          "54": -0.12843952345839618,
          "55": -0.07775875568565671,
          "56": 0.041801518671654915,
          "57": -0.03809539884402051,
          "58": 0.10070251394464753,
          "59": -0.10513120702063018,
          "60": -0.037274593234955286,
          "61": 0.01988416534120692,
          "62": -0.08492531768978047,
          "63": -0.04550836962557361
        }
      },
      "14": {
        "bias": 0.01716734265882345,
        "weights": {
          "0": 0.12913865992155837,
          "1": 0.007222506452077953,
          "2": -0.027970577058844665,
          "3": 0.10487240106184945,
          "4": 0.005919981508884379,
          "5": -0.23954943469378767,
          "6": 0.021027279881839014,
          "7": -0.09796476876355693,
          "8": -0.07745065245296705,
          "9": 0.029284454984393346,
          "10": 0.03566953551859884,
          "11": -0.09315135198624103,
          "12": 0.15798981187430375,
          "13": 0.03761615547874435,
          "14": -0.08867367382454337,
          "15": -0.04805051198038957,
          "16": -0.18040820306261107,
          "17": 0.08331708884417656,
          "18": -0.1616154488485811,
          "19": -0.04438164806410715,
          "20": -0.13630887890013424,
          "21": -0.18091378780032366,
          "22": 0.020600519440140352,
          "23": -0.16278945045980794,
          "24": 0.11049818065309597,
          "25": 0.0696515107727285,
          "26": -0.045357746693442766,
          "27": 0.06340612877173395,
          "28": -0.06409251418716709,
          "29": -0.15930778008788926,
          "30": 0.06311190051285691,
          "31": -0.11660134118538516,
          "32": -0.1422865192996584,
          "33": -0.21177988710826734,
          "34": 0.10021319776407965,
          "35": 0.06335355899653386,
          "36": -0.07678146863039985,
          "37": 0.004399006450053961,
          "38": 0.09453163058853463,
          "39": -0.18860388580288134,
          "40": -0.14504052801148473,
          "41": 0.1399397381077951,
          "42": 0.04533879518215713,
          "43": -0.09770500542062273,
          "44": -0.075580017412623,
          "45": -0.08489291002242191,
          "46": 0.015557048461392504,
          "47": -0.23792186899214351,
          "48": 0.028847633191192813,
          "49": 0.0062015279769610295,
          "50": 0.04158359792121289,
          "51": 0.05292643287486854,
          "52": -0.06340860775556385,
          "53": -0.21868271193361516,
          "54": 0.18312566788387583,
          "55": 0.14754911323571038,
          "56": -0.042524760811662295,
          "57": -0.000134487024933166,
          "58": 0.005408996608758723,
          "59": 0.10190140599767059,
          "60": -0.03715509998849728,
          "61": -0.2022884667629641,
          "62": 0.19508642601157605,
          "63": -0.002881134224263212
        }
      },
      "15": {
        "bias": 0.37666230235289844,
        "weights": {
          "0": 0.40158305210778583,
          "1": -0.27730715788846366,
          "2": -0.043967471700390184,
          "3": -0.1868886535939209,
          "4": 0.037295083657221326,
          "5": -0.1278510184507581,
          "6": -0.17712876035335037,
          "7": 0.05581328913941255,
          "8": 0.11861842608403003,
          "9": -0.20413662699327514,
          "10": 0.124679835944561,
          "11": -0.026117630602035903,
          "12": 0.15803186295627417,
          "13": -0.11044875142866,
          "14": -0.07584035824490226,
          "15": -0.2465658705417395,
          "16": -0.06459708764315199,
          "17": -0.24572300912978884,
          "18": -0.17329447582073115,
          "19": -0.21655702416312697,
          "20": -0.12212986198215194,
          "21": -0.16905290022244215,
          "22": 0.04761777330721021,
          "23": -0.20104237252228044,
          "24": -0.06323106311859476,
          "25": -0.25135098433564856,
          "26": -0.08763779015514525,
          "27": -0.1391925162509184,
          "28": -0.10824194305882578,
          "29": -0.27931582378933045,
          "30": -0.10970950559681125,
          "31": 0.034805193602186056,
          "32": 0.04536335638716541,
          "33": -0.07268687612790672,
          "34": -0.05057214151817464,
          "35": -0.1363511149513959,
          "36": -0.10008670836354429,
          "37": -0.2309751973832808,
          "38": -0.11301631576116694,
          "39": -0.030077805476032164,
          "40": -0.042620186604569905,
          "41": -0.1445502056677328,
          "42": -0.1971740028489578,
          "43": -0.028493656426073485,
          "44": 0.17084503903768214,
          "45": -0.0671161943815447,
          "46": -0.12452574248972667,
          "47": 0.023002744160960976,
          "48": 0.18989467331444806,
          "49": 0.1061637170778213,
          "50": 0.10982399367208207,
          "51": 0.019252640720807502,
          "52": 0.10814921895458166,
          "53": 0.022615617672175924,
          "54": -0.06702083855557653,
          "55": -0.008730995354099949,
          "56": 0.09919476702680792,
          "57": 0.033296731048159466,
          "58": 0.15278001816113618,
          "59": -0.017893557013779756,
          "60": 0.2598508936729108,
          "61": -0.1614770477895778,
          "62": 0.1840226420551849,
          "63": 0.0703211665922588
        }
      },
      "16": {
        "bias": -0.16240292013169272,
        "weights": {
          "0": 0.20847475273020016,
          "1": -0.08185080290053845,
          "2": 0.08906270655766048,
          "3": -0.016791590593422247,
          "4": 0.05788698837029501,
          "5": 0.08775662290987638,
          "6": -0.13686913613796894,
          "7": 0.03781398579427478,
          "8": -0.027718879599933924,
          "9": 0.0811515706162895,
          "10": -0.1709976692381507,
          "11": 0.019462638339505848,
          "12": -0.17039783059918542,
          "13": -0.008073585622854386,
          "14": 0.048624907835514895,
          "15": -0.15886363830306027,
          "16": -0.0004407249195466922,
          "17": 0.02952450182275511,
          "18": 0.008719007494902509,
          "19": 0.13618160174403235,
          "20": -0.21232674711847102,
          "21": -0.20879930203118738,
          "22": 0.08359320825832711,
          "23": -0.17511239365269257,
          "24": 0.05860614905464678,
          "25": 0.10469879341131347,
          "26": -0.22524793267136334,
          "27": -0.09926919865389926,
          "28": 0.07464145312525179,
          "29": 0.12222707173719714,
          "30": 0.06243160464653684,
          "31": -0.22841300920713495,
          "32": -0.2184267437101587,
          "33": -0.10147115674277449,
          "34": 0.01348538674267745,
          "35": 0.05178031481273308,
          "36": 0.08939326706265104,
          "37": 0.11211615303845834,
          "38": -0.09719976708594628,
          "39": 0.04212269540876601,
          "40": 0.14044923767069709,
          "41": 0.021796165965399447,
          "42": 0.1299423777856517,
          "43": -0.15595142000132609,
          "44": -0.21786451190556808,
          "45": -0.11883733495548048,
          "46": 0.036977626134450985,
          "47": 0.0398546235956384,
          "48": 0.055722759203271154,
          "49": -0.17463386793737473,
          "50": -0.06670698375383033,
          "51": 0.054698373864890466,
          "52": 0.1358676102817087,
          "53": 0.11674001151424092,
          "54": 0.020325232972276334,
          "55": 0.07109697344140152,
          "56": 0.0509719867469491,
          "57": -0.032524912606452266,
          "58": 0.10919083918112008,
          "59": -0.2021073602141189,
          "60": -0.1025091467278504,
          "61": -0.2031150788132869,
          "62": 0.13655425854258227,
          "63": -0.08775557837331073
        }
      },
      "17": {
        "bias": -0.008032854328020556,
        "weights": {
          "0": 0.26792308050135827,
          "1": -0.058703522103178404,
          "2": -0.03206685203778021,
          "3": 0.10219185850101434,
          "4": -0.10887923188190338,
          "5": -0.07892667000124529,
          "6": 0.04981870492782797,
          "7": -0.24587655909148412,
          "8": -0.13513472957052358,
          "9": -0.2044567330031145,
          "10": -0.1536726201642644,
          "11": 0.042575010344263545,
          "12": -0.05749588404882224,
          "13": -0.1638949600409046,
          "14": 0.09309517761048432,
          "15": -0.18363053116955558,
          "16": -0.16334822224465123,
          "17": -0.050039139779218214,
          "18": -0.22863935879006742,
          "19": -0.09287814332944555,
          "20": 0.026651348704677953,
          "21": -0.16715625151777821,
          "22": -0.004565771176727836,
          "23": 0.004642872401278339,
          "24": 0.051175689741567075,
          "25": 0.034969354464917494,
          "26": 0.07332326825056945,
          "27": -0.07894805490011762,
          "28": 0.04484198521386426,
          "29": 0.11510075657254214,
          "30": 0.02931166295036044,
          "31": 0.0326508480683822,
          "32": 0.01974466137303172,
          "33": 0.049282071516184,
          "34": 0.08604755681092247,
          "35": -0.06452699735250543,
          "36": -0.0825643802305263,
          "37": -0.22714022607556864,
          "38": -0.1339271965322493,
          "39": -0.22509113331028335,
          "40": -0.030629253036765492,
          "41": 0.13560994999320514,
          "42": 0.12741351600397813,
          "43": -0.0853039767876031,
          "44": 0.1734661116755517,
          "45": 0.11448300463504082,
          "46": -0.15297637033347017,
          "47": -0.14516558158274231,
          "48": -0.17996436776946037,
          "49": -0.16596548975022302,
          "50": -0.15892600718784264,
          "51": -0.09067358052472323,
          "52": -0.10536016235060684,
          "53": 0.09432348126959458,
          "54": 0.13177582808615634,
          "55": 0.13629388260633532,
          "56": -0.1786171521947548,
          "57": -0.16577108163990176,
          "58": -0.055904427623477436,
          "59": 0.027904084942676512,
          "60": 0.10264902910514703,
          "61": 0.00791854544203941,
          "62": 0.05763243763259923,
          "63": 0.0043310984863051865
        }
      },
      "18": {
        "bias": -0.05690376714940614,
        "weights": {
          "0": -0.4624801348530011,
          "1": 0.21856830174701003,
          "2": 0.19302764368528372,
          "3": 0.17759203072129456,
          "4": -0.12693570926087397,
          "5": 0.2666822599890726,
          "6": 0.11205134301388725,
          "7": 0.12710770159520746,
          "8": 0.16766948123130307,
          "9": -0.01727999890143676,
          "10": -0.19855728927810704,
          "11": 0.23724667499720292,
          "12": 0.0736038381521103,
          "13": 0.019904446345311074,
          "14": 0.07244018483645434,
          "15": 0.18297219376670262,
          "16": 0.17284234864688533,
          "17": -0.09047897298866972,
          "18": 0.0031862528537989123,
          "19": 0.07555223093087939,
          "20": 0.005283230797997056,
          "21": 0.112740643417893,
          "22": 0.1959795390165792,
          "23": 0.10247336213247908,
          "24": 0.15739843225537645,
          "25": -0.03651240946938165,
          "26": 0.17841374544767982,
          "27": 0.1012309005206437,
          "28": -0.20232782350585005,
          "29": 0.20286619450600385,
          "30": 0.23281805154391585,
          "31": -0.0638893295319966,
          "32": -0.17028850599336204,
          "33": 0.1960944884386471,
          "34": 0.04893085496199577,
          "35": 0.09439639192939779,
          "36": -0.10255569771869665,
          "37": -0.10092936033812631,
          "38": 0.127758719439972,
          "39": -0.018218572684466854,
          "40": 0.10804188991610919,
          "41": 0.11152104375357129,
          "42": 0.155232698384893,
          "43": 0.046047298608874174,
          "44": -0.11028805195317515,
          "45": 0.07593613560012936,
          "46": 0.04500784471505841,
          "47": -0.0388602073464977,
          "48": 0.05933092537779559,
          "49": 0.016414481967070075,
          "50": -0.10047831747910703,
          "51": 0.1993171410495591,
          "52": -0.052614551972906085,
          "53": -0.061161718056586295,
          "54": -0.06289971627771493,
          "55": 0.044343448921645594,
          "56": -0.17472889455871488,
          "57": -0.03917457624235718,
          "58": -0.016411295244718297,
          "59": 0.16700114863426882,
          "60": -0.07418879377642333,
          "61": -0.12771794655212254,
          "62": 0.08572272382825874,
          "63": -0.02829135380472849
        }
      },
      "19": {
        "bias": 0.038198276639255825,
        "weights": {
          "0": -0.016752841373505835,
          "1": 0.1735480033695472,
          "2": 0.10301492290252902,
          "3": 0.10389057900631064,
          "4": -0.18690958934712482,
          "5": 0.1410114193433371,
          "6": 0.13915661957207556,
          "7": 0.06813929286920653,
          "8": -0.1786851385739491,
          "9": 0.026851153896448304,
          "10": 0.159940949467867,
          "11": -0.08552938151134272,
          "12": 0.15130519029513062,
          "13": 0.04080419617750872,
          "14": -0.014253376763611833,
          "15": 0.12051623636945676,
          "16": 0.05161265989465595,
          "17": 0.10534617329882141,
          "18": 0.16912274281918943,
          "19": -0.044099008787254215,
          "20": -0.17650773451627846,
          "21": -0.08705880649034534,
          "22": -0.04596035010258228,
          "23": 0.01583061267535538,
          "24": 0.10943329121473548,
          "25": -0.07885210342037507,
          "26": 0.1364020535641231,
          "27": 0.04530738223350273,
          "28": 0.10603299409138241,
          "29": 0.12457522858219947,
          "30": 0.10726392587315546,
          "31": -0.14843744408322995,
          "32": 0.20575164175671165,
          "33": 0.19654424339469917,
          "34": 0.1847402945532926,
          "35": -0.0946842110852757,
          "36": -0.07410992423128261,
          "37": -0.04987692235345951,
          "38": -0.06938622164266169,
          "39": 0.10891492994283519,
          "40": -0.05634589442045665,
          "41": 0.03356224138211637,
          "42": 0.17814169990480758,
          "43": 0.19103799544967862,
          "44": 0.07829015781746546,
          "45": -0.07619316633512122,
          "46": 0.11661663383050878,
          "47": 0.1280427919264601,
          "48": -0.15443985154823756,
          "49": -0.019072389774758804,
          "50": 0.1140280907258721,
          "51": 0.14337054138149638,
          "52": -0.10072805743798371,
          "53": 0.19700353538388102,
          "54": -0.16254558181863302,
          "55": -0.15798845670928072,
          "56": -0.040841690871875225,
          "57": 0.04273359822451029,
          "58": -0.1275296432417968,
          "59": -0.0072012371755959155,
          "60": -0.11099709086386064,
          "61": -0.1900458264707093,
          "62": -0.0006219292449629844,
          "63": 0.029403045862190193
        }
      },
      "20": {
        "bias": -0.13365463473272693,
        "weights": {
          "0": 0.248763509509761,
          "1": 0.06459902722275444,
          "2": 0.08576734688049456,
          "3": -0.23906266109529528,
          "4": 0.17012818408565702,
          "5": 0.024799125267531485,
          "6": -0.09826053961793199,
          "7": 0.042625941112173694,
          "8": -0.07575063741826611,
          "9": 0.13782329697611914,
          "10": -0.22303935339039255,
          "11": 0.01245163208169808,
          "12": 0.09243025727526459,
          "13": -0.12858932801704726,
          "14": -0.21270650764210308,
          "15": -0.05905979202676723,
          "16": -0.07399856540033417,
          "17": -0.17629393330517587,
          "18": -0.24268132068660864,
          "19": 0.0668484126690055,
          "20": -0.08056921150699367,
          "21": -0.10777797433644017,
          "22": -0.13037916403810004,
          "23": -0.08354384704174227,
          "24": -0.09493558872166673,
          "25": -0.07967224538257353,
          "26": 0.057743928691530874,
          "27": -0.1521586906014608,
          "28": -0.042670548969878076,
          "29": 0.11143391404753487,
          "30": 0.11416845561197692,
          "31": 0.06785272959973777,
          "32": 0.05024578017709542,
          "33": 0.07381560449859172,
          "34": -0.08128829632730591,
          "35": -0.15620185747875287,
          "36": 0.09888399894778291,
          "37": -0.11786286493838893,
          "38": 0.15401102323091445,
          "39": -0.059582950774749864,
          "40": -0.04929533421781218,
          "41": 0.044188400841542755,
          "42": 0.0834966638427905,
          "43": -0.0212656600934796,
          "44": -0.17853409622996763,
          "45": -0.1246901102104874,
          "46": 0.02175300847141705,
          "47": 0.03992739847936061,
          "48": -0.02739915249245503,
          "49": 0.09350437632146272,
          "50": 0.0394576071083524,
          "51": -0.07441314205308158,
          "52": 0.07094410396787076,
          "53": -0.11923433035589623,
          "54": 0.0910616085944262,
          "55": 0.057660143024808964,
          "56": -0.11608917095323287,
          "57": -0.017144561314613418,
          "58": 0.08160427323896048,
          "59": 0.0929020438256529,
          "60": 0.13677158453068985,
          "61": -0.12798709094180657,
          "62": 0.15540034024158506,
          "63": 0.12253009568797303
        }
      },
      "21": {
        "bias": 0.226153566730145,
        "weights": {
          "0": -0.003388869784660069,
          "1": -0.21823237268258763,
          "2": 0.0535153502008007,
          "3": 0.14104946458549408,
          "4": 0.1438946507855807,
          "5": -0.017463936842404777,
          "6": -0.21714701043318885,
          "7": -0.0854811400095907,
          "8": 0.0008099140049860084,
          "9": -0.15803328046386908,
          "10": -0.10582868401344639,
          "11": -0.06980627027157117,
          "12": 0.12682943314548262,
          "13": -0.026287404315775434,
          "14": 0.14683529913224427,
          "15": 0.13608498753009698,
          "16": -0.17320823888250006,
          "17": -0.1405452892371103,
          "18": -0.1731716367314525,
          "19": -0.1557598396059112,
          "20": 0.08750695544940318,
          "21": -0.05330264088986291,
          "22": -0.07019151424200495,
          "23": 0.07103534774255094,
          "24": -0.11399575085675842,
          "25": 0.10165891189385239,
          "26": -0.007351952460755092,
          "27": 0.10485905646460912,
          "28": -0.10784105477691268,
          "29": -0.045000657552479166,
          "30": 0.012156870733289521,
          "31": -0.09044038337612641,
          "32": -0.20001339221285774,
          "33": -0.009010389758321349,
          "34": -0.00531006900279704,
          "35": 0.0827195483567655,
          "36": 0.0002984739076579401,
          "37": -0.0015394797520665697,
          "38": -0.16954634177076716,
          "39": -0.0599127352922737,
          "40": -0.07527863211000065,
          "41": 0.06635619470164544,
          "42": 0.17636160623738562,
          "43": -0.13378233308338242,
          "44": -0.16606390948264935,
          "45": -0.21264443809411085,
          "46": 0.026262994777674777,
          "47": -0.17651787566086696,
          "48": 0.18845363364795353,
          "49": -0.1489982925852209,
          "50": -0.1294920136318468,
          "51": -0.10188894268204576,
          "52": -0.023397067279988724,
          "53": -0.15823704695111926,
          "54": 0.016070354683940028,
          "55": -0.13013281504163102,
          "56": -0.13225714418242288,
          "57": 0.04402202141218023,
          "58": -0.1392445343820013,
          "59": -0.0654281815871249,
          "60": -0.16395171819255744,
          "61": -0.11147516774455526,
          "62": -0.00867219293013618,
          "63": -0.030378122121236688
        }
      },
      "22": {
        "bias": 0.05028484449295481,
        "weights": {
          "0": 0.22336146381828856,
          "1": -0.1456390730184242,
          "2": 0.1258949544916993,
          "3": -0.043766087634679554,
          "4": 0.1311871756427218,
          "5": 0.05344314500567342,
          "6": 0.08233081717686981,
          "7": -0.09573415014440358,
          "8": -0.04103321533081869,
          "9": -0.04354659948525331,
          "10": 0.14719185193690537,
          "11": -0.23038930565403803,
          "12": 0.16254234779198085,
          "13": -0.11453160817187578,
          "14": -0.030486150041275993,
          "15": -0.13748911977653533,
          "16": -0.08188704352154431,
          "17": 0.1188539140765348,
          "18": 0.04072774558538279,
          "19": -0.10204500658166143,
          "20": 0.08798312796078571,
          "21": 0.13769866700516364,
          "22": -0.02916706164987019,
          "23": -0.21758922279657913,
          "24": -0.10087717776988812,
          "25": -0.03930082430903349,
          "26": 0.03716645326225235,
          "27": 0.13306532099419355,
          "28": 0.013060032236378154,
          "29": -0.07172180800799313,
          "30": -0.10256914421236786,
          "31": -0.23987783191494041,
          "32": -0.05638424977220975,
          "33": -0.200598838537269,
          "34": -0.08596144260046164,
          "35": -0.017350053923728213,
          "36": -0.014132388958005343,
          "37": -0.11660210774446479,
          "38": -0.19100249259843466,
          "39": 0.003902818487132216,
          "40": 0.02997304191159592,
          "41": 0.0803503859321135,
          "42": 0.04265070298309403,
          "43": 0.12653902708491574,
          "44": 0.08491077358373021,
          "45": 0.021484120660653132,
          "46": -0.10972557462369197,
          "47": 0.15068681684296611,
          "48": 0.05918049882536467,
          "49": 0.03383692967492733,
          "50": 0.09561295075831666,
          "51": -0.15358523776509725,
          "52": 0.023041541111014276,
          "53": -0.19219177028141884,
          "54": -0.0316854425397742,
          "55": -0.002464472020132987,
          "56": 0.184420819921896,
          "57": 0.06069343990191648,
          "58": 0.04542810446227428,
          "59": -0.07607454082317525,
          "60": 0.007199109490063404,
          "61": -0.12771047588207085,
          "62": 0.0033215030839307087,
          "63": 0.0851089053748588
        }
      },
      "23": {
        "bias": 0.008340296076995298,
        "weights": {
          "0": 0.08264304227723086,
          "1": -0.1794724721718704,
          "2": -0.13735931991962963,
          "3": 0.013658819293983156,
          "4": -0.024174789360740138,
          "5": -0.1573173833860244,
          "6": -0.1291444010017442,
          "7": -0.019957411153127352,
          "8": -0.18599459091225615,
          "9": -0.06398430021930324,
          "10": 0.10359174809339833,
          "11": -0.0043535368490889926,
          "12": -0.049830346908853004,
          "13": 0.10958052079685077,
          "14": 0.11098491337634966,
          "15": -0.029899879358997808,
          "16": 0.030470676742072076,
          "17": 0.11352893764589407,
          "18": -0.1749736432146109,
          "19": -0.07649466865752329,
          "20": -0.1746709277350924,
          "21": -0.2062472479074473,
          "22": 0.1576191315368598,
          "23": -0.19007493170720158,
          "24": -0.01322726154373551,
          "25": -0.18759047289820122,
          "26": -0.08053509908837078,
          "27": -0.19173500800873425,
          "28": 0.12296181325066294,
          "29": 0.029807752918105335,
          "30": -0.23214693240986242,
          "31": 0.11822189062378101,
          "32": -0.05063587772850747,
          "33": -0.13506481920420227,
          "34": 0.0024555169899915115,
          "35": -0.11751368740583816,
          "36": 0.0037823339086153697,
          "37": -0.10777979681683723,
          "38": 0.16071124231483103,
          "39": -0.08519525330853582,
          "40": 0.008738030370428588,
          "41": 0.14755617244397398,
          "42": 0.11958607845911566,
          "43": -0.10020319970201172,
          "44": -0.007223686451512158,
          "45": -0.17896809275654832,
          "46": -0.20113518819083534,
          "47": 0.06812497200226528,
          "48": -0.020433965402910047,
          "49": -0.11259805682864191,
          "50": -0.07945848742648347,
          "51": -0.12888751911895044,
          "52": 0.08701011703885532,
          "53": 0.16454264218020895,
          "54": 0.18388918819152253,
          "55": 0.18121495778134492,
          "56": -0.053696040114776085,
          "57": -0.12741224469938683,
          "58": 0.17098133414388325,
          "59": 0.07787343527185765,
          "60": -0.06883687925021068,
          "61": 0.011128579777375807,
          "62": -0.10456668319464224,
          "63": 0.06063250109579949
        }
      },
      "24": {
        "bias": -0.07471097051627887,
        "weights": {
          "0": -0.26215976529921714,
          "1": -0.06757482924244891,
          "2": 0.20773708962286222,
          "3": -0.12011493362825919,
          "4": 0.20484549202308017,
          "5": -0.09966156460684023,
          "6": 0.05438930596007222,
          "7": 0.09583174268522959,
          "8": 0.060860668706384076,
          "9": 0.2163719928034728,
          "10": -0.16386707202147127,
          "11": -0.006721025717735102,
          "12": 0.17613759109299437,
          "13": 0.06557323139524515,
          "14": 0.08149323615857954,
          "15": 0.010814141559020182,
          "16": -0.0843533888148198,
          "17": 0.11663674858996703,
          "18": -0.008367024880694001,
          "19": -0.03997860619945866,
          "20": -0.06374995041963691,
          "21": 0.05986114230500145,
          "22": 0.07530982768991785,
          "23": 0.16022612223073757,
          "24": 0.2244191775727963,
          "25": -0.022583296609335467,
          "26": 0.0059513671479991545,
          "27": 0.10821093123301471,
          "28": -0.12306924729642392,
          "29": -0.02995548415183915,
          "30": -0.16641437127379333,
          "31": 0.19417659902535458,
          "32": -0.10834761414071024,
          "33": -0.089751385890021,
          "34": 0.0929027815788267,
          "35": -0.07458219005031501,
          "36": 0.014280651045191073,
          "37": 0.16044692851780964,
          "38": 0.10150059971347229,
          "39": -0.006101890328319101,
          "40": -0.12341966051289019,
          "41": -0.02300026644721256,
          "42": 0.19996019405927506,
          "43": 0.20337849444484066,
          "44": 0.13161161111680675,
          "45": -0.09833738994196778,
          "46": 0.012842333457792522,
          "47": 0.17534991648580947,
          "48": 0.1564514209484897,
          "49": -0.10172921387802343,
          "50": -0.013154672258020824,
          "51": 0.16429835891709577,
          "52": -0.19595948412443032,
          "53": 0.05369682256395442,
          "54": -0.0044929671321725624,
          "55": -0.17943932954584335,
          "56": 0.14077778346860992,
          "57": -0.08261158149630793,
          "58": -0.19809046149349233,
          "59": 0.10666773783624738,
          "60": 0.016542754758989538,
          "61": 0.19875069416291907,
          "62": -0.131314951515193,
          "63": 0.024811241752501104
        }
      },
      "25": {
        "bias": -0.13039854196902564,
        "weights": {
          "0": -0.4817702058519857,
          "1": 0.08947351703919713,
          "2": 0.22711558155864706,
          "3": 0.17874292805824987,
          "4": -0.07088612394246774,
          "5": -0.05413063310832378,
          "6": 0.1391482605156652,
          "7": 0.25684354339739207,
          "8": -0.12772526107263393,
          "9": -0.04314747749745389,
          "10": 0.1501781856366127,
          "11": 0.2441626538370313,
          "12": 0.15972032036063077,
          "13": 0.24545996127774383,
          "14": 0.11838255837195592,
          "15": 0.1759608388917517,
          "16": -0.002344235625526689,
          "17": 0.22672943824579114,
          "18": 0.21275774643449424,
          "19": 0.1367796737747094,
          "20": 0.04737740896933549,
          "21": 0.10064991479435062,
          "22": -0.12029722275380723,
          "23": 0.196895298867555,
          "24": 0.1815468305756883,
          "25": 0.017056692704688875,
          "26": 0.2446037815271511,
          "27": 0.03158237749546133,
          "28": 0.13168443415090056,
          "29": 0.02391139249402577,
          "30": 0.018684945933377915,
          "31": 0.04648824812429578,
          "32": -0.01521313941696736,
          "33": 0.07936713302741477,
          "34": -0.17271156652728756,
          "35": 0.08838511973099425,
          "36": -0.0550061294885879,
          "37": 0.07275803678944864,
          "38": 0.1772719852529145,
          "39": -0.06958324770229438,
          "40": -0.07169463704376094,
          "41": 0.16177873045984312,
          "42": 0.03868948271805659,
          "43": 0.0006487476019705479,
          "44": -0.15566320579497334,
          "45": -0.04951162690438014,
          "46": -0.08750999292362212,
          "47": 0.16270207791066255,
          "48": 0.04597958296938294,
          "49": 0.12590167758302168,
          "50": 0.017294407334444296,
          "51": -0.14737297220683715,
          "52": -0.013746945807080916,
          "53": 0.041441353645977036,
          "54": -0.16625482460922644,
          "55": 0.111056757719842,
          "56": 0.1567670047780606,
          "57": -0.19189868006402783,
          "58": 0.13873449605382426,
          "59": -0.11586757716436934,
          "60": -0.2395047033825527,
          "61": -0.010253617371928939,
          "62": -0.08136481823816792,
          "63": 0.01218333981828145
        }
      },
      "26": {
        "bias": 0.17891464168435892,
        "weights": {
          "0": -0.09702181364160915,
          "1": 0.07532494785732871,
          "2": 0.1456063738562711,
          "3": 0.12178694769505324,
          "4": -0.17808024895254965,
          "5": 0.02251637334740105,
          "6": 0.12938152869228853,
          "7": -0.060082357310348625,
          "8": -0.13973555531061638,
          "9": -0.0902962051468089,
          "10": -0.07392512491482449,
          "11": 0.1669567806299804,
          "12": -0.18589806904055844,
          "13": -0.054920132706228746,
          "14": 0.15216964888741696,
          "15": 0.2099745025265535,
          "16": -0.055293435852426534,
          "17": -0.17492652167750397,
          "18": 0.10400653271020183,
          "19": 0.0890148793547865,
          "20": 0.15767623446113316,
          "21": 0.008319344032268083,
          "22": -0.0632073273725997,
          "23": 0.046292649153676924,
          "24": 0.16410877209282662,
          "25": 0.09582605619677,
          "26": -0.12117328750155568,
          "27": -0.005468744697147678,
          "28": -0.13387045356798807,
          "29": -0.03476485704207008,
          "30": 0.19366002469289958,
          "31": 0.004290301522353903,
          "32": -0.18364394599300474,
          "33": -0.1354234866559041,
          "34": 0.12703629348598047,
          "35": 0.19424142968186273,
          "36": 0.19243977733764348,
          "37": -0.15530414702812467,
          "38": 0.18446304670907668,
          "39": 0.1669401026033856,
          "40": 0.1344198179326839,
          "41": 0.03212891351147967,
          "42": 0.1613937603581706,
          "43": 0.17314066389492128,
          "44": -0.13476634350210537,
          "45": 0.056015997640567895,
          "46": 0.03660617702317203,
          "47": 0.0638271453173417,
          "48": -0.16596729628117826,
          "49": 0.07361965574907663,
          "50": -0.18558932328968064,
          "51": -0.18329386455181032,
          "52": 0.12046425304732103,
          "53": 0.09032085696325587,
          "54": 0.13710670228981253,
          "55": 0.010299905883838953,
          "56": 0.05026635820692875,
          "57": -0.1411483083463825,
          "58": -0.1322386977942065,
          "59": 0.18343453992863482,
          "60": 0.13691451607570618,
          "61": 0.03637699026014602,
          "62": -0.17390459624686377,
          "63": 0.05268021474012889
        }
      },
      "27": {
        "bias": 0.1712373870531104,
        "weights": {
          "0": 0.24583043982468283,
          "1": 0.0833102451662746,
          "2": 0.04761573880433804,
          "3": 0.0025832588087410487,
          "4": 0.027231183152164384,
          "5": -0.04090054032421221,
          "6": -0.10978410403384244,
          "7": -0.15466815861968736,
          "8": 0.08988793043436118,
          "9": -0.11900254644215724,
          "10": -0.11865739515906508,
          "11": -0.20979134592171658,
          "12": -0.1262428407999535,
          "13": -0.06624240099253563,
          "14": 0.009337515385129726,
          "15": -0.23900695904677807,
          "16": -0.049803772235005546,
          "17": -0.2343722684558857,
          "18": -0.08998587714364516,
          "19": -0.2235250806743117,
          "20": -0.05636408260715702,
          "21": -0.126612357776456,
          "22": -0.030641552277183466,
          "23": -0.07705123686979538,
          "24": 0.14373980687470073,
          "25": 0.0820181367183181,
          "26": 0.13643984398606865,
          "27": 0.06048027040974956,
          "28": 0.15449321607436634,
          "29": -0.04423556150036541,
          "30": -0.06987528129815188,
          "31": 0.09106575336072364,
          "32": -0.0814328194299494,
          "33": -0.21851454365180073,
          "34": -0.027566100680446307,
          "35": -0.12706560684494822,
          "36": 0.19226695345233527,
          "37": 0.12993938166803365,
          "38": -0.19038779428595806,
          "39": -0.22226713711238844,
          "40": 0.031940291557892436,
          "41": -0.1858689364359153,
          "42": 0.10506754219734926,
          "43": 0.017698537073555155,
          "44": -0.15380744811730812,
          "45": -0.0691049093646592,
          "46": -0.1110235089623446,
          "47": 0.04758556016511027,
          "48": 0.11558501353011712,
          "49": -0.0873103181212566,
          "50": 0.01765589805634896,
          "51": 0.011340990469963699,
          "52": -0.175507555901036,
          "53": 0.1050816047469846,
          "54": -0.04093362107624669,
          "55": 0.021284475493036668,
          "56": -0.06006860708649576,
          "57": -0.09053792835875993,
          "58": -0.002980767150936904,
          "59": -0.06274835212535333,
          "60": -0.1313767481874618,
          "61": -0.07993297675988856,
          "62": -0.09304017850451916,
          "63": -0.11656566913835988
        }
      },
      "28": {
        "bias": 0.055908029721767186,
        "weights": {
          "0": 0.049397037093268197,
          "1": 0.10153793407535319,
          "2": 0.009417519882535322,
          "3": -0.19207709958587155,
          "4": -0.0803983616291475,
          "5": -0.05733751140247153,
          "6": 0.023021348141236433,
          "7": 0.01924184591266988,
          "8": 0.09222067379543113,
          "9": 0.14969726506941458,
          "10": 0.09423888496228476,
          "11": 0.1243549387111617,
          "12": -0.15125774879106657,
          "13": 0.14399169102121936,
          "14": -0.22708245715629968,
          "15": -0.06378686741142504,
          "16": -0.1221480777581875,
          "17": 0.1647906103117698,
          "18": -0.07309601124768522,
          "19": -0.015011694166383302,
          "20": 0.08519354173043699,
          "21": 0.12171412381928293,
          "22": 0.01711507859088412,
          "23": -0.161865958881655,
          "24": -0.03655263831636089,
          "25": 0.002161170783816148,
          "26": 0.0033510761916584965,
          "27": -0.18070393634098736,
          "28": -0.09035526156884789,
          "29": -0.2159750443369047,
          "30": 0.08418575523633112,
          "31": -0.06351857972304925,
          "32": -0.1467255585056601,
          "33": -0.08076008943163866,
          "34": -0.17358169029527729,
          "35": -0.10155146362110687,
          "36": 0.1443870804446617,
          "37": -0.03515953281518444,
          "38": 0.009466165758514581,
          "39": -0.1405727679195069,
          "40": 0.031227030258408887,
          "41": 0.1641963299170377,
          "42": 0.06656211559580713,
          "43": 0.06918364440115825,
          "44": 0.17932616114709118,
          "45": 0.12183595094021388,
          "46": 0.0027785877786325333,
          "47": 0.11846830159404734,
          "48": -0.12727672752418542,
          "49": -0.04948676012542933,
          "50": 0.16476665493573764,
          "51": 0.1732795395028851,
          "52": 0.13267727192134696,
          "53": 0.04750441928836963,
          "54": -0.13639030757750226,
          "55": 0.025954219422965746,
          "56": -0.01419330736565006,
          "57": -0.14297275188668854,
          "58": -0.15973361458331173,
          "59": 0.11624612536085852,
          "60": -0.12439016969341621,
          "61": -0.10962985954893477,
          "62": 0.09138664045679529,
          "63": 0.12858552525804381
        }
      },
      "29": {
        "bias": 0.39132814671360744,
        "weights": {
          "0": 0.6124754829262832,
          "1": -0.30404655405318604,
          "2": -0.12069561552714929,
          "3": -0.2589778666652178,
          "4": -0.12774060783882782,
          "5": -0.0994285574071125,
          "6": -0.1546031136038854,
          "7": -0.2706749846757194,
          "8": -0.1229849114308536,
          "9": -0.23720641707759846,
          "10": 0.1627976530781945,
          "11": -0.2546673605305361,
          "12": -0.03566088846356835,
          "13": -0.11435255276444069,
          "14": -0.1804258308790505,
          "15": -0.10321315780683134,
          "16": -0.09216323211203781,
          "17": -0.17926358340526785,
          "18": -0.07845017205876645,
          "19": -0.10400990840615415,
          "20": 0.16499252217000365,
          "21": -0.0811693904755168,
          "22": -0.1954212567171188,
          "23": -0.19387769146421577,
          "24": -0.21953167254904268,
          "25": 0.01385849699819355,
          "26": -0.04149805749575468,
          "27": -0.019981832827829116,
          "28": 0.13628729580260718,
          "29": -0.06276310175028511,
          "30": -0.20804972326642623,
          "31": -0.2263255564260122,
          "32": -0.011068117541625675,
          "33": -0.1799881839933395,
          "34": -0.0622974143316304,
          "35": 0.08007854161895793,
          "36": 0.04455520613872675,
          "37": 0.014907982881007536,
          "38": -0.045788065233364955,
          "39": -0.015116270774524493,
          "40": -0.13596829870921318,
          "41": -0.03679399412103561,
          "42": 0.10459398745652264,
          "43": 0.061265704019699246,
          "44": 0.12493505327790226,
          "45": -0.06877137448495091,
          "46": -0.09873777675082315,
          "47": -0.1957140175476669,
          "48": 0.08005951926511455,
          "49": 0.03310591336921611,
          "50": -0.050825611147824905,
          "51": -0.18676197452325188,
          "52": 0.11208835687125039,
          "53": -0.13592576558162361,
          "54": 0.20366922456473657,
          "55": 0.1630635887578489,
          "56": -0.03225861792780009,
          "57": 0.1817192575489528,
          "58": 0.00553223458059248,
          "59": 0.02097352819840243,
          "60": 0.20912011963849317,
          "61": -0.1716073677147411,
          "62": 0.11740222057843244,
          "63": -0.10335626197084685
        }
      },
      "30": {
        "bias": -0.1364272198394251,
        "weights": {
          "0": -0.2876968625953618,
          "1": -0.015561724644583868,
          "2": 0.16163611251617258,
          "3": -0.11497946751851647,
          "4": -0.000635129086863269,
          "5": 0.19252807230123506,
          "6": 0.08862680861538703,
          "7": 0.2194390359034974,
          "8": 0.014714675799280447,
          "9": -0.04163686324716671,
          "10": 0.062988528049246,
          "11": 0.22072523341062075,
          "12": -0.05520312767436022,
          "13": 0.12859088623470713,
          "14": 0.024724259488289244,
          "15": -0.11964974676277745,
          "16": 0.047628862865441025,
          "17": 0.22080616899622865,
          "18": 0.09019256810447032,
          "19": -0.03005185523883728,
          "20": -0.14142273549329692,
          "21": 0.25268281264470793,
          "22": -0.05625498938520988,
          "23": 0.08813630523170482,
          "24": 0.16225173809836252,
          "25": 0.002616329246276733,
          "26": -0.10378265444970336,
          "27": 0.18671311030430665,
          "28": 0.18290858893867884,
          "29": 0.1510266462716437,
          "30": 0.15318590277823127,
          "31": 0.030601358550085687,
          "32": 0.07193327650111109,
          "33": -0.053788058140497856,
          "34": -0.08185181921040088,
          "35": 0.1974971401738591,
          "36": -0.1628025413172199,
          "37": 0.11742977610375992,
          "38": -0.16235718633558077,
          "39": 0.1795490091568365,
          "40": -0.11945662306500415,
          "41": 0.007857470552936846,
          "42": 0.07880364803206516,
          "43": -0.08437055070780088,
          "44": 0.21064158625449764,
          "45": -0.07815635918414163,
          "46": 0.0009392317323836175,
          "47": 0.11501747553390913,
          "48": -0.0031793250986640043,
          "49": 0.0682576377129101,
          "50": 0.033064360085897936,
          "51": 0.060933529300594556,
          "52": -0.10887742555483927,
          "53": 0.07297339956568408,
          "54": 0.03740299970152871,
          "55": -0.022227353802189598,
          "56": -0.1863507371802626,
          "57": 0.022950427632752346,
          "58": 0.038463718150496796,
          "59": 0.041579898487417125,
          "60": 0.042982949165518605,
          "61": -0.04544556517516687,
          "62": 0.10229855448439189,
          "63": -0.03994491556618401
        }
      },
      "31": {
        "bias": 0.03480048457708282,
        "weights": {
          "0": 0.24071153092803624,
          "1": 0.03432044329819346,
          "2": -0.22333958314362917,
          "3": -0.22730038285929038,
          "4": 0.1614961703098133,
          "5": 0.009934519211538186,
          "6": -0.0681066354057965,
          "7": -0.19685711104001052,
          "8": -0.19020893186790264,
          "9": 0.0064268416314515065,
          "10": -0.04901138023241849,
          "11": -0.24606598085234718,
          "12": 0.2163659842145506,
          "13": -0.21303830549869895,
          "14": -0.11721283258892085,
          "15": 0.12360547412410262,
          "16": -0.20079599425146127,
          "17": 0.09264861004809553,
          "18": 0.0696059381637478,
          "19": -0.2278576811743933,
          "20": -0.17054963158491032,
          "21": 0.03272431249900862,
          "22": 0.13924971843868686,
          "23": 0.058647883847674324,
          "24": 0.0020696982367171463,
          "25": 0.08358544090247584,
          "26": 0.04024875837076479,
          "27": -0.25055737572688846,
          "28": -0.04356150261522319,
          "29": -0.2462794729380649,
          "30": -0.1322155201733147,
          "31": -0.22085012794282083,
          "32": 0.054429542737723546,
          "33": -0.18066117605320522,
          "34": 0.06937029747043678,
          "35": -0.2257161079148972,
          "36": 0.007096475476661182,
          "37": -0.1603372383237666,
          "38": 0.11372604052678452,
          "39": 0.00594949343289568,
          "40": -0.03488235730389908,
          "41": -0.02073950800358122,
          "42": -0.1125808221337848,
          "43": -0.1020696350932155,
          "44": 0.031714230910812005,
          "45": 0.03113249726174137,
          "46": -0.05736103152494043,
          "47": -0.20356666230481202,
          "48": 0.09314716855554968,
          "49": 0.014370417112944402,
          "50": 0.12486412505459248,
          "51": -0.0973977301911028,
          "52": 0.09171929644046203,
          "53": -0.16314736351949266,
          "54": 0.03311887306192431,
          "55": -0.10195226258643944,
          "56": 0.1593856567520863,
          "57": 0.17179425154873723,
          "58": -0.0756414036892607,
          "59": -0.17902965207087773,
          "60": -0.06460416169154752,
          "61": -0.16813034125981743,
          "62": 0.19589572614720654,
          "63": 0.11458220786358368
        }
      },
      "32": {
        "bias": -0.03487346518521748,
        "weights": {
          "0": -0.052172584197341526,
          "1": 0.06208211966297749,
          "2": 0.189267720840095,
          "3": 0.12271146580521168,
          "4": -0.017609999888116793,
          "5": 0.04484848211892852,
          "6": 0.096925539955098,
          "7": -0.0016022421735638521,
          "8": 0.19855245430474758,
          "9": -0.06229717030885569,
          "10": -0.005850276771134336,
          "11": 0.15503349386774007,
          "12": 0.14944062599633054,
          "13": 0.19775875144011779,
          "14": -0.032264083114949764,
          "15": 0.22643408258569347,
          "16": -0.1350773647228444,
          "17": 0.1983890679591061,
          "18": 0.1096542264140839,
          "19": 0.23342181554466412,
          "20": -0.08928418890989234,
          "21": -0.07015008956805954,
          "22": -0.006413971749365171,
          "23": 0.2195869418044938,
          "24": 0.009067528961772575,
          "25": 0.2298210712777586,
          "26": 0.18006722372886474,
          "27": 0.09638457957594186,
          "28": 0.06161456085546311,
          "29": 0.20046945560958065,
          "30": -0.12153215935420358,
          "31": 0.1301941565937157,
          "32": 0.08815805051189107,
          "33": 0.0044401089993579895,
          "34": 0.04232143661879369,
          "35": 0.15601407234341563,
          "36": -0.10955288500755286,
          "37": 0.008716594982585086,
          "38": -0.16504241790501237,
          "39": 0.09935969014426228,
          "40": 0.041709991286822075,
          "41": 0.08046627732553616,
          "42": 0.046306857474568204,
          "43": 0.04425105948220135,
          "44": -0.17769703712165785,
          "45": 0.18339200566019181,
          "46": 0.09612819875607591,
          "47": 0.029297082164948918,
          "48": 0.14342400490273627,
          "49": 0.12045454897606273,
          "50": -0.09263438626885262,
          "51": -0.07903596848813314,
          "52": -0.22702830623212888,
          "53": 0.09956845607804417,
          "54": 0.05869553177854121,
          "55": 0.16616101577544432,
          "56": -0.16428179558616698,
          "57": -0.1382492994091471,
          "58": 0.0934312578487533,
          "59": -0.16056198404184713,
          "60": -0.14965800788934802,
          "61": -0.037376594014936954,
          "62": 0.13822448461213288,
          "63": 0.09016201509801404
        }
      },
      "33": {
        "bias": -0.08031194406789618,
        "weights": {
          "0": -0.2798914206878492,
          "1": 0.2566575208293527,
          "2": -0.020838200661674185,
          "3": 0.21351255637519195,
          "4": -0.05025288345084968,
          "5": 0.041098271668239025,
          "6": -0.05229828026711782,
          "7": 0.21246405920740208,
          "8": -0.06061235437356726,
          "9": 0.19048270433145595,
          "10": 0.16200328422115098,
          "11": -0.13919534842572923,
          "12": -0.10942370387215766,
          "13": 0.05633256930830007,
          "14": 0.21564091268162436,
          "15": 0.08352636514722293,
          "16": -0.007670460215863155,
          "17": 0.2068325148562299,
          "18": 0.22871838270722739,
          "19": 0.15303229597000292,
          "20": 0.11071677823174941,
          "21": 0.09183363509110255,
          "22": -0.03794273254203192,
          "23": 0.21465933962394404,
          "24": -0.013787038689597148,
          "25": -0.024852902717654647,
          "26": -0.12253285884118956,
          "27": 0.163893500666899,
          "28": 0.04400000407732824,
          "29": 0.0030457867488485444,
          "30": 0.13980164968828732,
          "31": 0.06091617494834328,
          "32": -0.06957071305237073,
          "33": -0.02005590681257163,
          "34": 0.01890802015154533,
          "35": 0.09951537252127647,
          "36": 0.08291240264153926,
          "37": 0.20567847889047683,
          "38": 0.026894175657475924,
          "39": -0.07688844440607437,
          "40": 0.15642619268174113,
          "41": 0.02257254523536285,
          "42": 0.14083704045875356,
          "43": -0.13856657341076958,
          "44": -0.12917092139125136,
          "45": -0.03438066876125288,
          "46": -0.05753195920281701,
          "47": -0.06153831379527278,
          "48": 0.11476102798012959,
          "49": 0.0063661638223656055,
          "50": 0.16390278958082202,
          "51": -0.06488183324535494,
          "52": -0.08055041000627337,
          "53": -0.1528511166987409,
          "54": -0.01583706446332205,
          "55": -0.12673971898593378,
          "56": -0.09081740730090393,
          "57": -0.048034809186328326,
          "58": -0.1323217257190542,
          "59": -0.14485142753402758,
          "60": 0.10137263948295501,
          "61": 0.165076156318268,
          "62": -0.023525990731214707,
          "63": -0.16661285725468195
        }
      },
      "34": {
        "bias": -0.19013652746066453,
        "weights": {
          "0": -0.2488532975263857,
          "1": -0.0811462015042661,
          "2": -0.00048294623494220116,
          "3": -0.030368039033708136,
          "4": 0.18498379555822825,
          "5": -0.08864449004876819,
          "6": 0.2047570250551626,
          "7": 0.08580176477943692,
          "8": -0.0176819929305977,
          "9": 0.11791511987616064,
          "10": 0.09680287480744514,
          "11": -0.12708922819020407,
          "12": 0.1820957819057838,
          "13": -0.048315493940336324,
          "14": -0.040233937063111125,
          "15": 0.028722067124923898,
          "16": 0.10783770396444937,
          "17": 0.05443124334211816,
          "18": 0.22505847106852955,
          "19": 0.0888705811190183,
          "20": 0.07410082821547812,
          "21": 0.0692647566714024,
          "22": 0.21441484649699963,
          "23": -0.14610967247547277,
          "24": 0.048343444719228156,
          "25": 0.22758117941791015,
          "26": 0.19086830854375392,
          "27": -0.08763291709969065,
          "28": -0.18369032502787216,
          "29": 0.06015332467557197,
          "30": -0.1508483014393802,
          "31": 0.19214224150632542,
          "32": 0.17485460541068282,
          "33": -0.07183686104427366,
          "34": -0.07799161935131502,
          "35": -0.07811649979174358,
          "36": -0.06369906194955444,
          "37": 0.038109932905271184,
          "38": 0.16295832961183185,
          "39": 0.2153074025304795,
          "40": -0.0441237317647337,
          "41": -0.12675136671385356,
          "42": -0.07655289973534221,
          "43": -0.03965799614315981,
          "44": -0.14820794765086784,
          "45": 0.0436584321891212,
          "46": 0.1279891542844931,
          "47": -0.10307808986099973,
          "48": -0.11331996783981622,
          "49": 0.11247796732513753,
          "50": 0.12957895996742427,
          "51": 0.11541696889251159,
          "52": -0.05897754770688978,
          "53": -0.0009722552341775431,
          "54": 0.02580278625045038,
          "55": -0.11994035066856809,
          "56": 0.057546764609899465,
          "57": -0.0006403982381142197,
          "58": 0.14338271834930744,
          "59": 0.02208884930866266,
          "60": -0.07430280381882376,
          "61": 0.18897102923554174,
          "62": 0.04054783352833109,
          "63": -0.062146427972030474
        }
      },
      "35": {
        "bias": -0.01606957195706967,
        "weights": {
          "0": 0.18977243700277155,
          "1": -0.22362315964070795,
          "2": -0.018336116726468055,
          "3": -0.19436371009690773,
          "4": -0.18834536817808042,
          "5": -0.009540370415236782,
          "6": 0.11611736074088361,
          "7": -0.0016551395108830242,
          "8": -0.057604503880367405,
          "9": -0.09565472109251433,
          "10": 0.09265273267253184,
          "11": -0.16707976462672622,
          "12": 0.018169860160377617,
          "13": -0.061830935573550634,
          "14": 0.08575672266853065,
          "15": -0.17503413964841763,
          "16": -0.034971995364976055,
          "17": 0.05960614467033367,
          "18": -0.15509760066812986,
          "19": -0.06501711939600972,
          "20": -0.11754802559104342,
          "21": 0.04270491936426562,
          "22": -0.13391073282385754,
          "23": -0.1125563955151644,
          "24": 0.06790437523061717,
          "25": 0.1478940987916175,
          "26": 0.07085837989979603,
          "27": -0.07229735141212265,
          "28": -0.1408982927582353,
          "29": 0.042391030232596855,
          "30": -0.03636412963269776,
          "31": -0.043427217630664205,
          "32": 0.007483507675797212,
          "33": -0.03746450917670376,
          "34": -0.018621243256871093,
          "35": -0.05864423681751995,
          "36": -0.08401318024663819,
          "37": 0.17794182848779938,
          "38": -0.19930661449358042,
          "39": 0.1563993483534084,
          "40": 0.18964682282675135,
          "41": -0.020129074293960877,
          "42": 0.0831242199383679,
          "43": 0.06481145159148001,
          "44": 0.11150771503746956,
          "45": -0.11005485401596446,
          "46": -0.1620594466452774,
          "47": 0.16953254423645056,
          "48": -0.0019083213180094585,
          "49": 0.15335606261624368,
          "50": 0.03756399925791862,
          "51": 0.0996753419012152,
          "52": -0.13725955953504243,
          "53": 0.10511964607194582,
          "54": 0.06576122800675163,
          "55": -0.09141243028750137,
          "56": -0.0010822376174227028,
          "57": 0.11334780983368441,
          "58": 0.03325810122316212,
          "59": 0.03710773455605434,
          "60": -0.11970819077830265,
          "61": -0.18586504395283895,
          "62": -0.09994037566878967,
          "63": -0.16977301438538522
        }
      },
      "36": {
        "bias": 0.040088894719837335,
        "weights": {
          "0": 0.2665604263466379,
          "1": -0.20884674032888575,
          "2": 0.12184815364859061,
          "3": -0.1659193322645988,
          "4": 0.05281438144417185,
          "5": -0.004749168265052481,
          "6": -0.19741887119772628,
          "7": -0.040548980839567664,
          "8": -0.0932381409629456,
          "9": 0.04027716862749655,
          "10": -0.14126785985119875,
          "11": -0.058408912340650675,
          "12": -0.1691440010512811,
          "13": 0.02586036476102904,
          "14": -0.054565315065733415,
          "15": -0.0937638947648638,
          "16": -0.11935029792002132,
          "17": -0.013198395009917577,
          "18": 0.10452755883024166,
          "19": -0.057719018344593295,
          "20": 0.13544688544491132,
          "21": -0.1521210068554991,
          "22": -0.14118687779374903,
          "23": -0.09635024865928345,
          "24": -0.16306648134527693,
          "25": 0.032612682594112534,
          "26": 0.015195807246644958,
          "27": 0.050754669973047846,
          "28": -0.03705473488324416,
          "29": 0.03517635348124368,
          "30": -0.11016070881212783,
          "31": 0.02972064925770118,
          "32": 0.03847179058839092,
          "33": -0.19517130998941132,
          "34": 0.13474052139285986,
          "35": 0.07270487678636575,
          "36": -0.15723570443926957,
          "37": -0.051592030371249556,
          "38": 0.11926848091849634,
          "39": -0.232744360596256,
          "40": -0.13048755138465895,
          "41": -0.20051465512706718,
          "42": -0.214336741591072,
          "43": -0.143234322040008,
          "44": 0.1713154915314419,
          "45": -0.12425402114751885,
          "46": 0.11590017628566376,
          "47": -0.03891918863862536,
          "48": -0.18351250186822718,
          "49": 0.05928780554151029,
          "50": -0.052997053047861516,
          "51": 0.13311942906704569,
          "52": 0.12456269303911201,
          "53": -0.009107409067068093,
          "54": -0.16096880933612437,
          "55": -0.18416113654702926,
          "56": 0.17616433008919286,
          "57": -0.15046114723729007,
          "58": -0.02455923737426226,
          "59": -0.05087510718527744,
          "60": 0.1341205300928076,
          "61": 0.10685272236978009,
          "62": 0.125979877047269,
          "63": -0.09863625773570951
        }
      },
      "37": {
        "bias": -0.09592944367382017,
        "weights": {
          "0": -0.01226387959164536,
          "1": -0.13466087903625976,
          "2": -0.0433342469349143,
          "3": 0.046372339445232676,
          "4": -0.03945208209805251,
          "5": -0.058497771470007155,
          "6": -0.018805462960059815,
          "7": -0.05724364154941137,
          "8": -0.15690528855294997,
          "9": -0.17444464000614254,
          "10": 0.11786836461989474,
          "11": -0.23790833420541313,
          "12": -0.08269935408787778,
          "13": -0.06766134208937509,
          "14": -0.018037454755842536,
          "15": 0.08487285081403748,
          "16": -0.21554762192498556,
          "17": 0.05553821795321085,
          "18": -0.1556681526769261,
          "19": 0.01862275041912662,
          "20": 0.046589610816260035,
          "21": 0.036563033175056416,
          "22": 0.10872874146002846,
          "23": 0.07826128293320213,
          "24": 0.07710473528219397,
          "25": -0.09496613126677954,
          "26": -0.20308758815304015,
          "27": 0.02884006158541447,
          "28": 0.07329015813982216,
          "29": 0.07720105474029222,
          "30": -0.17785417126148867,
          "31": 0.013652232777844555,
          "32": 0.01513672637132861,
          "33": -0.18473680933123324,
          "34": -0.005797514832377897,
          "35": 0.06514485981649754,
          "36": 0.06108749911944413,
          "37": -0.08690711939762699,
          "38": 0.003750868380771732,
          "39": -0.09981396171826383,
          "40": 0.0893364256127149,
          "41": 0.15334038774862893,
          "42": -0.06673654788134703,
          "43": -0.04262188257890124,
          "44": 0.09911424257332752,
          "45": 0.14380415019576503,
          "46": -0.1390554721604685,
          "47": -0.21009997279454073,
          "48": 0.13626833237882335,
          "49": -0.0287324924192142,
          "50": -0.09587478981030442,
          "51": -0.16157444876325708,
          "52": 0.036885290306550716,
          "53": -0.13452012188452603,
          "54": -0.1810937116420786,
          "55": -0.09569416277551979,
          "56": -0.13173106308522992,
          "57": -0.19442736678081704,
          "58": 0.1845534628409394,
          "59": 0.1583816611245209,
          "60": 0.0900876460732642,
          "61": 0.09181640123900331,
          "62": -0.1730268417130994,
          "63": -0.10772714280991666
        }
      },
      "38": {
        "bias": -0.1111073489067252,
        "weights": {
          "0": 0.06701687622496283,
          "1": -0.13136373159281567,
          "2": 0.07954731260966302,
          "3": 0.14376249551162967,
          "4": -0.19606427054859082,
          "5": -0.10466349656869889,
          "6": -0.17885466783029982,
          "7": -0.02845215898851918,
          "8": -0.21475574924955912,
          "9": -0.024245272916287607,
          "10": 0.030537796118681574,
          "11": -0.06281557309121603,
          "12": -0.0443981462170788,
          "13": -0.12253542854302472,
          "14": 0.1649210056818313,
          "15": -0.17869110480415437,
          "16": 0.11431936783876846,
          "17": 0.013718518701179178,
          "18": -0.20915822238288473,
          "19": -0.15792386795809843,
          "20": 0.17163087592752402,
          "21": -0.17990179990213384,
          "22": -0.024108178868428358,
          "23": -0.15549907377864863,
          "24": 0.06568528006107201,
          "25": 0.05317605513139661,
          "26": -0.12709146591974066,
          "27": 0.008288096669662582,
          "28": 0.14119322533852613,
          "29": 0.08803891935739672,
          "30": 0.15105927840830075,
          "31": -0.20136414369518105,
          "32": -0.00108329221690818,
          "33": -0.18991487724506012,
          "34": -0.08588160433787227,
          "35": 0.17916968287707521,
          "36": -0.061875344101334155,
          "37": 0.10537658757717203,
          "38": 0.16764550133942954,
          "39": 0.028459077581619037,
          "40": -0.13406748351060208,
          "41": -0.05046223521026862,
          "42": -0.20073016551096806,
          "43": 0.15412088379234093,
          "44": 0.09975676639993261,
          "45": 0.12054179310401612,
          "46": -0.030494931316252225,
          "47": 0.061513059045160745,
          "48": -0.0010536509798097845,
          "49": -0.09394048137000828,
          "50": 0.1135136810124831,
          "51": -0.05861310437288735,
          "52": 0.015679444864271048,
          "53": 0.16255786083291562,
          "54": 0.07766254125490021,
          "55": 0.00938413877198902,
          "56": 0.0893491915758796,
          "57": -0.20101230240251663,
          "58": -0.10976247243190644,
          "59": 0.11440447242284213,
          "60": -0.040343317526345755,
          "61": -0.15553366853879433,
          "62": -0.11672805732087656,
          "63": 0.06728260169105472
        }
      },
      "39": {
        "bias": 0.17726498260228168,
        "weights": {
          "0": 0.28284520781482175,
          "1": -0.039365011190537036,
          "2": 0.10058688524230408,
          "3": -0.018670299758278046,
          "4": -0.22283948234866222,
          "5": 0.0922271911128473,
          "6": -0.026087195463275998,
          "7": -0.08431844769593715,
          "8": 0.06477503470578894,
          "9": 0.0756878482427754,
          "10": 0.07933786279931895,
          "11": -0.0710481595516842,
          "12": -0.11508760466547896,
          "13": 0.05796399832774166,
          "14": 0.10220743750476684,
          "15": -0.09714432297964641,
          "16": 0.13228477255905646,
          "17": -0.07644169138570389,
          "18": -0.25490291843221924,
          "19": -0.006228842707758667,
          "20": -0.02795306204882704,
          "21": -0.1258751961711145,
          "22": -0.11869962161671091,
          "23": -0.01882120531232484,
          "24": -0.0709740724684523,
          "25": -0.25059054639942546,
          "26": 0.08723330896443574,
          "27": -0.18394662291986405,
          "28": 0.13864903017477748,
          "29": -0.236873136630928,
          "30": -0.11220715634247762,
          "31": -0.005152392831742582,
          "32": 0.15286881705664004,
          "33": 0.039768710809835926,
          "34": 0.1069790771209343,
          "35": -0.22712289534105298,
          "36": 0.06927112029837339,
          "37": -0.1731673722392467,
          "38": -0.0403160540458018,
          "39": -0.21793367006359887,
          "40": -0.030726026499564036,
          "41": 0.06442225472539653,
          "42": 0.10978514475963844,
          "43": 0.10794409397830829,
          "44": -0.2333462312175403,
          "45": 0.08663456373404113,
          "46": -0.14139849209783442,
          "47": -0.2324186396542536,
          "48": 0.1794127479221364,
          "49": -0.10807460663682616,
          "50": 0.04542008759368266,
          "51": -0.170190206476244,
          "52": 0.1433293343458684,
          "53": -0.12321910768730188,
          "54": 0.136353821756097,
          "55": -0.0982705906276241,
